svm_type c_svc
kernel_type polynomial
degree 3
gamma 0.125
coef0 0
nr_class 2
total_sv 1692
rho -0.25629623948399349
label 1 0
nr_sv 864 828
SV
0.0030058344793202803 36:1 59:1 69:1 70:1 161:1 192:2 203:2 304:1 361:1 412:1 474:1 653:1 661:2 706:1 797:1 1084:1 1127:1 1151:1 1432:1 1512:1 1599:2 1668:1 2172:1 2466:1 2715:1 2726:1 2810:2 2859:1 2949:2 3173:1 3370:1 
0.0009856091973930955 59:1 158:1 161:1 244:1 280:1 412:1 430:1 653:1 660:1 885:1 1151:1 1260:1 1341:1 1432:1 1508:1 1579:1 1631:1 1891:1 2217:1 2227:9 2342:1 2374:1 2466:1 2780:1 3120:1 3352:1 3441:1 
0.00059201725349487702 17:1 59:1 86:1 115:1 161:1 232:1 244:1 258:1 310:1 412:1 432:1 557:1 653:1 811:1 844:1 1056:2 1084:1 1091:1 1117:2 1151:1 1237:2 1257:1 1265:1 1329:2 1336:1 1338:1 1355:1 1403:1 1432:1 1579:1 1662:1 1747:1 1874:1 1968:2 1992:1 2105:1 2185:1 2210:1 2351:1 2374:1 2396:1 2466:1 2569:1 2778:1 2925:1 2937:1 3198:2 3255:1 3278:1 
0.00029166988548805716 59:1 161:1 175:1 220:1 281:1 382:1 409:1 412:1 417:1 459:1 556:1 653:1 677:1 702:2 745:2 759:1 834:1 872:1 1092:1 1151:1 1179:1 1214:1 1646:1 1757:1 1827:2 1855:1 1914:1 2044:1 2110:1 2172:1 2188:1 2194:1 2199:1 2203:1 2213:1 2219:1 2224:1 2256:1 2259:1 2304:1 2466:1 2472:1 2561:1 2587:1 2601:1 2616:1 2655:1 2683:1 2811:1 2823:1 2869:1 2917:1 2974:1 3020:1 3061:1 3068:1 3168:1 3219:1 3273:2 3275:1 3324:1 3437:1 
0.013060193236841154 133:1 135:1 229:1 234:1 767:1 846:1 849:1 959:1 1015:1 1038:1 1121:1 1132:1 1577:2 1612:1 1623:1 1942:1 1979:1 1984:1 2012:1 2089:1 2208:1 2218:1 2795:1 2813:1 2853:1 2897:1 3310:1 3456:1 
0.00060223763615461958 25:1 59:1 122:1 161:1 393:1 412:1 504:1 653:1 750:1 820:1 849:1 872:1 1038:1 1045:1 1068:1 1151:1 1328:1 1395:1 1440:1 1543:1 1564:1 1615:1 1815:1 1827:1 2194:1 2231:1 2253:1 2259:1 2267:1 2282:1 2289:1 2304:1 2374:1 2466:1 2530:1 2538:1 2587:1 2601:1 2687:1 2701:1 2846:1 2847:1 2926:2 2974:1 3216:1 3296:1 3325:1 3326:1 
0.047878806776199712 59:1 161:1 334:1 412:1 531:1 648:1 653:1 1151:1 1293:1 1374:1 1781:1 1874:1 1942:1 2190:1 2200:1 2466:1 2529:1 2779:1 
0.020432311175628552 244:1 612:1 781:1 818:1 1057:1 1087:1 1355:2 1378:1 1409:1 1579:1 1827:1 1928:1 1979:1 2110:1 2253:1 2256:1 2374:1 2480:1 2515:1 2529:1 2538:1 2561:1 2939:1 3326:1 
0.069586102462379534 156:1 178:1 421:1 661:1 681:1 755:1 975:1 1599:1 2262:1 2275:1 2390:1 2400:1 2403:1 2483:1 2492:1 2636:1 2810:1 3109:1 
0.10243153665642565 59:1 161:1 412:1 653:1 998:1 1151:1 2466:1 3118:1 
0.25 59:1 161:1 412:1 653:1 998:1 1151:1 2466:1 3118:1 
0.023514592977591356 39:1 59:1 161:1 282:1 412:1 530:1 544:1 653:1 687:1 846:1 847:1 1099:1 1151:1 1358:1 1376:1 1731:1 1757:1 1963:1 2148:1 2405:1 2466:1 2499:1 2573:1 2795:1 2815:1 2934:1 2935:1 
0.0049158926731544964 59:1 105:1 161:1 244:2 292:1 412:1 432:1 459:1 512:1 653:1 656:1 709:1 838:1 849:1 850:1 996:1 1091:1 1095:1 1151:1 1387:1 1432:1 1579:1 1623:1 1651:1 1757:1 1874:1 1992:1 2067:1 2188:1 2210:1 2276:1 2374:1 2466:1 2481:1 2688:1 2843:1 2855:1 3021:1 3062:1 3075:1 3235:1 3273:1 
0.25 2068:1 2253:1 2538:1 3240:1 3326:1 
0.019155932097539716 59:1 161:1 200:1 244:3 412:1 653:1 1151:1 1575:1 1579:1 2374:1 2466:1 2811:1 2874:1 2890:1 3265:1 
0.02883838107141418 34:1 115:1 258:1 477:1 754:1 1056:1 1111:1 1159:1 1219:1 1237:1 1329:1 1344:1 1450:1 1588:2 1747:1 1968:1 2297:1 2942:1 3091:1 3150:1 
0.18894155224723816 195:1 393:1 509:1 874:1 1280:1 1588:1 1932:1 1965:1 2294:1 2340:1 3100:1 3140:1 3327:1 
0.0043593588257051352 40:1 109:1 135:1 154:1 171:1 290:1 556:1 652:1 698:2 811:1 834:1 872:1 982:1 1041:1 1132:1 1686:1 1709:1 1750:1 1901:1 1979:1 2199:1 2231:1 2276:1 2295:1 2373:1 2405:1 2481:1 2485:2 2580:1 2585:1 2655:1 2670:1 2914:1 2994:1 3111:1 3122:1 3147:1 3219:1 3330:1 3437:1 
0.25 59:1 161:1 412:1 653:1 1151:1 2466:1 
0.0011869100582026708 59:1 127:1 135:1 143:2 161:1 244:1 291:1 412:1 653:1 698:1 832:1 847:2 975:1 1000:1 1132:1 1151:1 1277:1 1570:1 1979:1 2079:1 2080:1 2244:1 2262:1 2374:1 2466:1 2480:1 2499:1 2636:1 2643:1 2694:1 2701:1 2810:1 2819:1 2838:1 2913:1 2914:1 2978:1 3026:1 3109:1 3150:1 3155:1 3189:1 3227:1 3265:1 3458:1 3462:1 
0.0022604662845877714 59:1 97:1 114:1 117:1 161:1 195:1 410:1 412:1 653:1 783:1 1056:1 1084:1 1087:1 1117:1 1131:1 1137:1 1151:1 1208:1 1237:1 1268:1 1329:1 1459:1 1757:1 1883:1 1976:1 2110:1 2126:1 2151:1 2359:1 2466:1 2520:1 2526:1 2995:1 3198:1 3334:1 3381:1 
0.00026311028755346118 59:2 84:1 94:2 105:1 115:1 122:1 161:1 162:3 317:2 412:1 504:2 539:1 653:1 763:1 777:1 931:1 1016:1 1056:1 1151:1 1185:1 1187:1 1240:1 1290:1 1329:1 1341:1 1367:1 1378:1 1396:1 1415:1 1500:2 1508:1 1521:1 1523:1 1530:2 1631:1 1646:1 1696:1 1732:1 1736:1 1737:1 1815:1 1853:1 1968:1 1979:1 1981:1 2086:2 2207:1 2328:1 2366:1 2386:1 2466:1 2472:2 2475:1 2608:1 2721:1 2758:1 2835:1 2909:1 2917:1 3117:1 
0.25 244:1 512:1 1348:1 1646:1 1914:1 2203:1 2933:1 
0.0048644719753232792 59:1 128:1 168:1 169:1 470:1 660:1 811:1 847:1 913:1 1179:1 1287:1 1312:1 1358:1 1370:1 1387:1 1508:1 1627:1 1670:1 1739:1 1757:1 1790:1 1813:1 1827:1 1879:1 1894:1 1942:1 2066:1 2169:1 2186:1 2205:1 2258:1 2354:1 2547:1 2551:1 2578:1 2593:1 2736:1 2810:1 2917:1 2934:1 3220:1 3250:1 3323:1 
0.0017831061786222958 59:1 104:1 161:1 175:1 178:1 333:1 334:1 412:1 526:1 571:1 653:1 661:1 689:1 721:1 759:1 1092:1 1151:1 1185:1 1374:2 1432:1 1599:1 1641:1 1646:1 1920:1 1942:2 2110:1 2219:1 2375:1 2466:1 2484:1 2529:1 2616:1 2811:1 2828:1 2866:1 2869:1 2917:1 3055:1 3275:1 
0.25 59:1 161:1 412:1 653:1 1049:1 1151:1 1183:1 1215:1 1329:1 2236:1 2342:1 2466:1 
0.0008446183941849129 34:1 59:1 69:1 161:1 220:1 248:1 281:1 292:1 382:1 409:2 412:1 475:1 563:1 653:1 654:1 677:1 811:2 812:1 862:1 935:1 1151:1 1179:1 1325:1 1385:1 1579:1 1671:1 1855:2 2047:1 2232:1 2301:1 2374:1 2441:1 2466:1 2901:2 3009:1 3061:2 3168:1 3288:1 3404:1 3410:1 
0.0022423861710532548 34:1 40:1 59:1 127:1 161:1 167:1 191:1 244:1 412:1 459:1 477:1 507:1 512:1 556:1 652:1 653:1 811:1 849:1 952:1 1038:1 1081:1 1095:1 1151:1 1331:1 1341:1 1392:1 1414:1 1508:1 1631:1 1757:1 1928:1 1994:1 2151:1 2188:1 2199:1 2287:1 2449:1 2466:1 2481:1 2538:1 2598:1 2637:1 2732:1 2801:1 2855:1 2936:1 3008:1 3129:1 
0.25 244:1 430:1 885:1 1432:1 1579:1 2199:1 2226:1 2374:1 2780:1 3352:1 
0.035496639270432666 59:1 161:1 412:1 448:1 653:1 703:1 750:2 872:1 929:1 1151:1 1190:1 1432:1 1615:1 1675:1 2268:1 2466:1 2690:1 3216:1 
0.020866164278497596 59:1 161:1 412:1 653:1 811:1 832:1 1056:1 1092:1 1151:1 1185:1 1237:1 1329:1 1341:1 1374:1 1430:1 1508:1 1631:1 1637:1 1671:1 1942:1 2110:1 2167:1 2219:1 2223:1 2466:1 2519:1 2526:1 2642:1 2701:1 2810:1 2917:1 2995:1 3219:1 
0.0038540091141989899 59:1 97:1 114:1 117:1 161:1 195:1 410:1 412:1 653:1 783:1 1056:1 1084:1 1087:1 1117:1 1131:1 1137:1 1151:1 1208:1 1237:1 1268:1 1329:1 1459:1 1757:1 1883:1 1976:1 2110:1 2126:1 2151:1 2359:1 2466:1 2520:1 2526:1 2616:1 2995:1 3198:1 3334:1 3381:1 
0.010922014595575276 59:1 97:1 161:1 232:1 412:1 480:1 595:1 653:1 777:1 844:1 989:1 1151:1 1179:1 1268:1 1288:1 2044:1 2139:1 2185:1 2213:1 2275:1 2362:1 2390:1 2466:1 2520:1 2690:1 2778:1 2810:1 2898:1 2917:1 2995:1 3026:1 3150:1 3170:1 3278:1 
0.05374807273903616 117:1 226:1 847:1 924:1 1014:1 1084:1 1290:1 1320:1 1358:1 1628:1 1757:2 2159:1 2499:1 2810:1 2934:1 3242:1 
0.0099598899282486789 244:1 307:1 458:1 608:1 721:1 767:1 780:1 847:1 952:1 983:1 1084:1 1184:1 1311:1 1351:1 1355:1 1415:1 1579:1 1595:1 1604:1 1607:1 1649:1 1694:1 1901:1 2094:1 2179:1 2254:1 2374:1 2405:1 2499:1 2524:1 2545:1 2568:1 2615:1 2810:2 2824:1 3034:1 3288:1 3326:1 
0.019315409316539096 130:1 244:1 464:1 470:1 684:1 750:1 872:1 1084:2 1386:1 1579:1 1615:1 1739:1 1794:1 1894:1 1916:1 2064:1 2186:1 2296:1 2373:1 2374:1 2578:1 3144:1 3179:1 3216:1 
0.038506100020250872 38:1 59:1 161:1 412:1 474:1 475:1 526:1 559:1 653:1 832:1 849:1 1038:1 1084:1 1151:1 1288:1 1928:1 2466:1 2641:1 2715:1 
0.0088240675235400981 38:1 59:1 139:1 161:1 412:1 460:1 475:1 526:1 559:1 653:1 1121:1 1151:1 1288:1 1371:1 1417:1 1623:1 1794:1 1797:1 1813:1 1819:1 1901:1 1989:1 2041:1 2050:1 2083:1 2191:1 2212:1 2405:1 2466:1 2578:1 2811:1 2867:1 2950:1 
0.0039834413858176494 59:1 137:1 161:1 166:1 221:1 280:1 412:1 430:1 653:1 663:1 1151:1 1270:1 1440:1 1741:1 2013:1 2238:1 2373:1 2466:1 2520:1 2616:2 2926:2 3184:1 
0.0053605615543751437 59:1 99:1 161:1 167:1 200:1 301:1 412:1 507:1 653:1 750:1 811:1 872:1 1091:1 1151:1 1367:1 1392:1 1547:1 1575:1 1582:1 1615:1 1634:1 1874:1 1984:1 1991:1 1992:1 2011:1 2208:1 2210:1 2211:1 2466:1 2519:1 2540:1 2637:1 2901:1 2995:1 3129:1 3216:1 
0.0016204859506173193 59:1 159:1 161:1 201:1 244:2 412:1 423:1 432:1 459:1 533:1 636:1 653:1 681:1 702:1 745:1 777:1 784:1 952:1 996:1 1069:1 1151:1 1179:1 1213:1 1290:1 1355:1 1415:1 1452:1 1492:1 1504:1 1579:1 1741:1 1757:1 1978:1 2168:1 2188:1 2199:1 2317:1 2374:1 2453:1 2466:1 2480:1 2615:1 2810:1 2917:1 2921:1 3062:1 3155:1 3218:1 3273:1 
0.0021348641988425563 39:1 97:1 117:1 158:1 163:1 195:1 244:3 317:1 401:1 459:1 512:1 530:1 533:1 678:1 750:1 778:1 789:1 802:1 849:1 872:1 1014:1 1038:1 1084:1 1085:1 1179:1 1348:1 1452:1 1525:1 1579:1 1615:1 1639:1 1646:1 1757:1 1770:1 1819:1 1874:1 2044:1 2085:1 2086:1 2088:1 2111:1 2188:1 2253:1 2374:1 2424:1 2442:1 2494:1 2538:1 2676:1 2748:1 2966:1 2992:1 3212:1 3216:1 3246:1 3326:1 
0.0014166629573380374 39:1 97:1 117:1 163:1 195:1 244:2 317:1 401:1 512:1 530:1 533:1 678:1 750:1 778:1 789:1 802:1 849:1 872:1 1014:1 1038:1 1084:1 1085:1 1348:1 1452:1 1525:1 1579:1 1615:1 1639:1 1646:1 1770:1 1874:1 2044:1 2085:1 2088:1 2111:1 2253:1 2374:1 2424:1 2442:1 2494:1 2538:1 2616:1 2748:1 2966:1 2992:1 3212:1 3216:1 3246:1 3326:1 
0.01305339196705853 38:1 244:1 304:1 464:1 475:1 512:1 526:1 559:1 811:1 872:1 1288:1 1348:1 1372:1 1432:1 1588:2 1646:1 1794:1 1914:1 1931:1 2111:1 2174:1 2294:1 2519:1 2933:1 2966:1 2973:1 2995:1 3100:1 3219:1 3250:1 
0.012938949814727981 24:1 59:1 139:1 161:1 168:1 388:1 405:1 412:1 430:1 653:1 660:1 846:1 849:1 885:1 1038:1 1151:1 1355:1 1432:1 1445:1 1588:1 1623:1 1638:1 2044:1 2174:1 2330:1 2466:1 2547:1 2640:1 2795:1 2913:1 2947:1 2973:1 2997:1 3012:1 3183:1 3352:1 
0.0036061902336747679 59:1 136:1 161:1 217:1 285:1 292:1 409:1 412:1 421:1 653:1 702:1 724:1 745:1 769:1 777:1 807:1 850:1 890:1 937:1 945:1 1064:1 1151:1 1283:1 1367:1 1576:1 1748:1 1894:1 1896:1 1933:1 1999:1 2017:1 2133:1 2236:1 2292:1 2295:1 2349:1 2405:1 2410:1 2466:1 2585:1 2616:1 2699:1 2855:1 2897:1 3064:1 3121:2 3273:1 3376:1 
0.10944556721835751 750:1 849:1 872:1 1038:1 1179:1 1190:1 1215:1 1432:1 1615:1 2236:1 2342:1 2917:1 3138:1 3216:1 3250:1 3461:1 
0.0068685791925440038 22:1 36:1 115:1 117:1 139:1 167:1 258:1 834:1 859:1 860:1 872:1 893:2 956:1 1014:1 1072:1 1117:1 1170:1 1230:1 1457:1 1519:1 1564:1 1565:1 1741:1 1747:1 1757:1 1824:1 1934:1 2044:1 2203:1 2304:1 2374:1 2539:1 2587:1 2656:1 2913:1 2922:1 2988:1 2991:1 3198:1 3219:1 3258:1 3355:1 3458:1 
0.00804931165820944 59:1 90:1 99:1 161:1 301:1 412:1 535:1 653:1 655:1 687:1 699:1 706:1 759:1 802:1 849:1 1038:1 1091:1 1151:1 1190:1 1367:1 1392:1 1432:1 1582:1 1623:1 1634:1 1646:1 1874:1 1918:1 1984:1 1992:1 2199:1 2208:1 2210:1 2343:1 2376:1 2466:1 2786:1 2896:1 
0.024255477780053141 28:1 40:1 59:1 97:1 109:1 161:1 266:1 412:1 432:1 556:1 652:1 653:1 656:1 924:1 1100:2 1151:1 1320:1 1371:2 1429:1 1628:1 1686:1 1797:1 1901:2 2466:1 2481:2 2529:2 2795:1 
0.001126249586623714 59:1 83:2 161:1 169:1 186:1 195:1 221:1 332:1 412:1 470:1 603:1 653:1 698:1 721:1 781:1 871:1 913:1 1151:1 1161:1 1348:1 1367:2 1371:1 1604:1 1649:1 1743:1 1910:1 1931:1 2186:1 2234:1 2304:1 2446:2 2466:1 2551:1 2581:1 2694:1 2747:1 2974:1 2992:1 3185:1 3286:1 3299:1 
0.20270623873379193 131:1 149:1 221:1 280:1 378:1 616:1 663:1 1570:1 1912:1 2681:1 2926:1 3184:1 
0.0044398320687447706 40:1 82:1 97:1 109:1 117:1 169:1 195:1 244:1 292:1 445:1 556:1 652:1 656:1 771:1 811:1 847:1 862:1 913:1 1014:1 1190:1 1219:1 1355:1 1358:1 1371:1 1432:1 1568:1 1579:1 1686:1 1757:2 1794:1 1901:1 2298:1 2374:1 2404:1 2481:2 2493:1 2528:1 2551:1 2811:1 2871:1 2901:1 3009:1 3168:1 
0.0039083219799465659 103:1 113:1 156:1 158:1 244:1 475:1 556:1 685:1 693:1 703:1 715:1 750:1 755:1 777:1 820:1 871:1 872:1 927:1 929:1 936:1 1219:1 1341:1 1362:1 1450:1 1508:1 1588:1 1615:1 1631:1 1639:1 1719:1 1761:1 1809:1 1914:2 2203:2 2236:1 2254:1 2298:1 2332:1 2349:1 2395:1 2492:1 2519:1 2545:1 3168:1 3219:1 3265:1 3326:1 3487:1 
0.017425644162719522 59:1 114:1 161:1 217:1 284:1 409:1 412:1 551:1 653:1 717:1 719:1 975:1 988:1 1014:1 1092:1 1151:1 1219:1 1576:1 1603:1 1896:1 2115:1 2219:1 2244:1 2297:1 2466:1 3121:1 3150:1 
0.012356406049064253 40:1 217:1 409:1 556:1 595:1 652:1 893:1 1170:1 1185:1 1355:1 1378:1 1576:1 1827:1 1896:1 1979:1 2044:1 2194:1 2213:1 2259:1 2304:1 2481:1 2587:1 2601:1 2917:1 2974:1 3121:1 
0.04405505633300618 28:1 175:1 232:1 266:1 432:1 844:1 1813:1 1827:1 1831:1 2185:1 2258:1 2302:1 2354:1 2593:1 2616:1 2778:1 2811:1 2869:1 3212:1 3278:1 
0.25 59:1 75:1 101:1 117:1 133:1 161:1 371:1 412:1 653:1 804:1 820:1 830:1 1080:1 1151:1 1258:1 1278:1 1611:1 1771:1 1852:1 1942:1 2014:1 2261:2 2389:1 2466:1 2496:1 2522:1 2616:2 2621:1 2863:1 2913:1 3388:1 
0.25 59:1 82:1 101:1 117:1 161:1 371:1 412:1 653:1 804:1 820:1 830:1 1080:1 1151:1 1278:1 1356:1 1611:1 1728:1 1771:1 1852:1 1881:1 2014:1 2261:2 2389:1 2466:1 2496:1 2522:1 2616:2 2621:1 2913:1 
0.25 59:1 101:1 117:1 144:1 159:1 161:1 371:1 412:1 653:1 666:1 804:1 820:1 830:1 1080:1 1151:1 1278:1 1611:1 1771:1 1852:1 2014:1 2081:1 2261:2 2389:1 2449:1 2466:1 2496:1 2522:1 2616:2 2621:1 2913:1 3474:1 
0.25 59:1 101:1 117:1 161:1 371:1 412:1 653:1 804:1 820:1 830:1 1080:1 1151:1 1278:1 1611:1 1653:1 1662:1 1771:1 1852:1 2014:1 2179:1 2261:2 2389:1 2466:1 2496:1 2522:1 2616:2 2621:1 2913:1 
0.25 59:1 101:1 108:1 117:1 161:1 371:1 412:1 653:1 804:1 820:1 830:1 1080:1 1151:1 1188:1 1278:1 1406:1 1611:1 1682:1 1771:1 1852:1 2014:1 2261:2 2358:1 2389:1 2439:1 2466:1 2496:1 2522:1 2616:2 2621:1 2667:1 2913:1 
0.25 59:1 101:1 117:1 161:1 371:1 412:1 653:1 804:1 820:1 830:1 1080:1 1151:1 1278:1 1390:1 1561:1 1611:1 1771:1 1852:1 2014:1 2261:2 2389:1 2466:1 2496:1 2522:1 2530:1 2616:2 2621:1 2913:1 3449:1 
0.25 59:1 101:1 161:1 412:1 653:1 804:1 830:1 869:1 1080:1 1151:1 1560:1 1611:1 1852:1 2234:1 2261:1 2266:1 2389:1 2405:1 2466:1 2496:1 2581:1 2583:1 2616:2 2658:1 3162:1 3446:1 
0.25 59:1 101:1 136:1 161:1 412:1 653:1 658:1 804:1 830:1 869:1 1080:1 1151:1 1611:1 1852:1 1874:1 1992:1 2234:1 2261:1 2389:1 2466:1 2496:1 2581:1 2616:2 3162:1 
0.25 59:1 74:1 101:1 161:1 412:1 502:1 653:1 804:1 830:1 869:1 1080:1 1151:1 1253:1 1611:1 1852:1 2234:1 2261:1 2389:1 2466:1 2496:1 2581:1 2616:2 2855:1 3162:1 3180:1 
0.25 59:1 101:1 161:1 202:1 412:1 653:1 804:1 830:1 869:1 1080:1 1091:1 1137:1 1151:1 1332:1 1611:1 1852:1 2199:1 2234:1 2261:1 2389:1 2466:1 2496:1 2581:1 2616:2 2718:1 2932:1 3162:1 
0.0055796520957973319 59:1 70:2 110:1 134:1 161:1 304:1 409:1 412:1 653:1 793:2 866:1 1121:2 1127:2 1151:1 1219:1 1432:1 1435:1 1452:1 1693:1 1769:2 1963:1 2188:2 2199:2 2298:1 2436:1 2466:1 2740:1 2770:1 2778:2 2881:1 3070:1 3077:1 3168:1 3212:1 3355:1 
0.15451441647315869 162:1 660:1 1092:1 1151:1 1185:1 1374:1 1452:1 1942:1 2110:1 2219:1 2472:1 2917:1 3212:1 
0.25 135:1 956:1 1132:1 1456:1 1666:1 1979:1 2141:1 2914:1 
0.0025460711431626159 59:1 158:1 161:1 409:1 412:1 653:1 660:1 811:1 872:1 890:1 976:1 998:1 1121:1 1151:1 1185:1 1212:1 1378:1 1757:1 1813:1 1818:1 1855:1 1901:1 1933:1 1979:1 2188:1 2295:1 2466:1 2705:1 2917:1 3061:1 3118:1 3122:1 3219:1 3376:1 3404:1 
0.0022926846150731249 24:1 59:1 97:2 161:1 244:1 262:1 390:1 412:1 464:1 653:1 698:1 1151:1 1185:1 1378:1 1579:1 1979:1 2044:1 2234:1 2277:2 2295:1 2374:1 2388:1 2439:1 2466:1 2694:1 2866:2 2917:1 2980:2 3134:1 3488:1 
0.0019363228212643851 59:1 156:1 161:1 189:1 244:1 412:1 417:1 585:1 653:1 777:1 1056:2 1134:1 1136:1 1151:1 1214:1 1237:2 1298:1 1329:2 1342:1 1579:1 1791:1 1813:1 1818:1 1968:2 2044:1 2172:1 2224:1 2349:1 2374:1 2396:1 2466:1 2683:1 2768:1 2933:1 
0.003264493884369233 28:1 162:1 168:1 175:1 244:1 266:1 409:1 432:1 470:1 512:1 648:1 660:1 998:2 1084:1 1135:1 1623:1 1827:1 1855:1 2194:1 2253:1 2259:1 2274:1 2304:1 2424:1 2472:1 2538:1 2547:1 2583:1 2587:1 2601:1 2616:1 2691:1 2795:1 2811:1 2869:1 2974:1 3061:1 3118:2 3246:1 3326:1 
0.005370343045946243 59:1 139:1 161:1 282:1 284:1 412:1 585:1 653:1 687:1 703:1 717:1 750:1 929:1 975:1 1056:1 1151:1 1179:1 1237:1 1298:1 1329:1 1370:1 1450:1 1538:1 1570:1 1639:1 1791:1 1894:1 1968:1 2019:1 2044:1 2177:1 2244:1 2253:1 2304:1 2374:1 2380:1 2466:1 2519:1 2538:1 2736:1 2917:1 2995:1 3250:1 3326:1 
0.0012537275657207802 59:1 134:1 161:1 175:1 195:1 412:1 653:1 662:1 706:1 761:1 797:1 816:1 847:1 1099:1 1111:1 1151:1 1159:1 1185:1 1344:1 1355:1 1378:1 1385:1 1512:1 1588:1 1681:1 1813:1 1818:1 1963:1 1979:1 2047:1 2332:1 2466:1 2481:1 2499:1 2616:1 2810:1 2901:1 2917:1 3091:1 
0.25 998:1 3118:1 
0.0054267956325856834 158:1 169:1 244:1 356:1 556:1 660:1 759:1 913:1 951:1 1111:1 1179:1 1185:1 1341:1 1344:2 1372:1 1378:1 1508:1 1588:1 1592:1 1631:1 1646:1 1914:2 1915:1 1979:1 2001:1 2047:1 2151:1 2203:1 2424:1 2551:1 2676:1 2896:1 2917:1 3091:2 3246:1 3487:1 
0.0070577917764728061 40:1 217:1 409:1 556:1 595:1 652:1 893:1 1170:1 1185:1 1355:1 1378:1 1576:1 1827:1 1896:1 1979:1 2044:1 2194:1 2213:1 2259:1 2304:1 2481:1 2587:1 2601:1 2616:1 2917:1 2974:1 3121:1 
0.017618646572597523 38:1 117:1 135:1 475:1 526:1 540:1 559:1 790:1 1014:1 1132:1 1185:1 1288:1 1293:1 1355:1 1378:1 1757:1 1979:2 2914:1 2917:1 3228:1 
0.0017607704012107849 59:1 92:1 117:1 161:1 191:1 300:2 316:1 412:1 445:1 459:3 653:1 767:1 1014:1 1151:1 1179:1 1277:1 1348:1 1367:2 1385:1 1508:1 1525:1 1574:1 1646:1 1736:1 1751:2 1753:1 1757:1 2053:1 2187:3 2466:1 2522:1 2748:1 2795:1 2813:1 2853:1 2897:1 2917:1 2995:1 3456:1 
0.039932653245891972 59:1 139:1 161:1 244:1 412:1 458:1 653:1 721:1 1151:1 1579:1 1604:1 1649:1 2044:1 2179:1 2373:1 2374:1 2466:1 3258:1 
0.011120511069281287 47:1 59:1 105:1 161:1 169:1 175:1 244:1 412:1 512:1 620:1 652:1 653:1 698:1 787:1 849:2 913:1 1038:2 1049:1 1130:1 1151:2 1219:1 1367:1 1634:1 1646:1 1666:1 1984:1 2017:1 2141:1 2208:1 2293:1 2298:1 2466:1 2551:1 2616:1 2694:1 2718:1 2811:1 2869:1 3084:1 3168:1 
0.0019761328142918417 39:1 59:1 81:1 139:1 161:1 162:1 173:1 192:1 404:1 412:1 460:1 530:1 612:1 653:1 661:1 702:1 746:1 750:1 780:1 825:1 872:1 909:1 1135:1 1151:1 1342:1 1348:1 1355:1 1452:1 1516:1 1599:1 1615:1 1646:1 1731:1 1895:1 1901:1 2049:1 2201:1 2449:1 2466:1 2472:1 2534:1 2561:1 2598:1 2810:1 2815:1 2926:1 2933:1 3212:1 3216:1 3260:1 3273:1 
0.00061223484904115435 28:2 39:2 59:1 131:2 161:1 244:2 356:1 412:1 432:2 447:1 512:2 530:1 541:1 594:2 648:1 653:1 798:1 811:1 1092:1 1151:1 1348:1 1352:1 1403:1 1525:1 1636:1 1646:1 1696:1 1910:2 2110:1 2111:1 2167:1 2185:2 2219:1 2223:1 2324:2 2351:1 2396:1 2442:2 2449:2 2466:1 2691:1 2966:1 2976:1 2992:2 3091:1 3250:1 
0.0012071987014479234 59:1 114:1 161:1 178:1 192:1 220:1 281:1 382:1 412:1 600:1 653:1 657:1 661:1 677:1 755:1 854:1 1151:1 1342:1 1358:1 1599:1 1757:1 1773:1 2188:1 2277:1 2466:1 2481:1 2492:1 2778:1 2810:1 2821:1 2855:1 2913:1 2933:1 2934:1 2994:1 3168:1 3261:1 
0.010060228164762196 59:1 114:1 161:1 178:1 192:1 220:1 281:1 382:1 412:1 600:1 653:1 657:1 661:1 677:1 755:1 854:1 1151:1 1342:1 1358:1 1599:1 1757:1 1773:1 2188:1 2277:1 2466:1 2481:1 2492:1 2616:1 2778:1 2810:1 2821:1 2855:1 2913:1 2933:1 2934:1 2994:1 3168:1 3261:1 
0.25 110:1 1091:1 1693:1 1914:1 2203:1 2770:1 
0.020700637316844621 26:1 156:1 195:1 244:1 302:1 409:1 460:1 512:1 651:1 750:1 872:1 1098:1 1134:1 1148:1 1416:1 1615:1 1954:1 2205:1 2361:1 2397:1 2453:1 2481:1 2621:1 2915:1 3216:1 
0.073697447922600606 59:1 161:1 412:1 653:1 1151:1 2217:1 2233:1 2312:1 2466:1 3325:2 
0.0017304045530370255 2:3 3:1 59:1 69:1 86:1 161:1 244:1 412:1 653:1 1151:1 1432:1 1579:1 1827:1 2257:1 2374:1 2466:1 2566:1 3255:1 
0.0093161355740573968 59:1 97:1 161:1 412:1 432:1 653:1 656:1 1151:1 1260:1 1284:1 1522:1 1827:1 2194:1 2259:1 2304:1 2342:1 2466:1 2481:1 2587:1 2601:1 2974:1 3441:1 
0.00068179300229981093 97:1 98:1 110:1 114:1 169:1 175:1 244:1 302:1 512:1 656:1 657:1 786:1 1148:1 1190:1 1416:1 1432:1 1452:2 1573:1 1639:2 1693:1 1709:1 1827:1 1843:2 1882:1 1992:1 2000:1 2039:1 2183:1 2256:1 2481:2 2551:1 2561:1 2616:2 2621:1 2645:2 2770:1 2777:1 2811:1 2821:1 2869:1 2915:1 2956:2 2994:1 3109:1 3212:1 3218:1 
0.0077069032677741928 59:1 114:1 136:1 161:1 409:1 410:1 412:1 653:1 657:1 750:1 811:1 832:1 849:1 1038:1 1056:1 1084:1 1092:1 1132:1 1151:1 1237:1 1329:1 1348:1 1435:1 1646:1 1670:1 1924:1 1942:1 1968:1 1994:1 2110:1 2205:1 2206:1 2219:1 2466:1 2481:1 2519:1 2642:1 2701:1 2815:1 2821:1 2881:1 2933:1 2975:1 2994:1 2995:1 3033:1 3219:1 3303:1 
0.25 59:1 161:1 412:1 653:1 866:1 1151:1 1386:1 1794:1 2064:1 2436:1 2466:1 3070:1 3077:1 3179:1 
0.020780500160579297 59:1 116:1 139:1 161:1 244:1 282:1 304:1 377:1 412:1 653:1 687:1 777:1 811:1 849:1 872:1 1038:1 1151:1 1432:1 1579:1 1751:1 1861:1 2044:1 2374:1 2466:1 2813:1 2901:1 3176:1 3218:1 
0.003711940269915262 149:1 158:2 175:2 232:1 244:1 540:1 660:1 790:1 819:1 844:1 913:1 1000:1 1134:1 1293:1 1432:1 1579:1 1915:1 2022:1 2185:1 2332:1 2351:1 2374:1 2437:1 2518:1 2616:2 2778:1 2811:1 2869:1 3026:1 3094:1 3150:1 3189:1 3228:1 3278:1 
0.14979835728684335 40:1 59:1 161:1 412:1 556:1 652:1 653:1 1151:1 1490:1 2269:1 2466:1 2481:1 2717:1 
0.007436181130409036 59:1 161:1 224:1 371:1 412:1 428:1 430:1 653:1 789:1 885:1 1139:1 1151:1 1179:1 1370:1 1407:1 1432:1 1813:1 1818:1 1894:1 2044:1 2304:1 2464:1 2466:1 2736:1 2917:1 3218:1 3328:1 3352:1 
0.016648687210880621 117:1 200:1 230:1 244:1 991:1 1014:1 1111:1 1219:1 1221:1 1225:1 1323:1 1344:1 1588:2 1743:1 1757:1 2174:1 2298:1 2304:1 2723:1 2846:1 2890:1 2926:1 3091:1 3168:1 3265:1 3295:1 
0.024558432498858637 59:1 161:1 412:1 653:1 1151:1 1212:1 1358:1 1757:2 2188:1 2466:1 2934:1 
0.099033502536353568 59:1 86:1 97:1 161:1 412:1 653:1 656:1 1100:1 1151:1 1371:1 1432:1 1827:1 1901:1 2194:1 2259:1 2304:1 2466:1 2481:1 2529:1 2587:1 2601:1 2974:1 3255:1 
0.0068356443347467339 36:1 59:1 82:1 139:1 161:1 244:1 412:1 603:1 653:1 834:1 872:1 1084:1 1151:1 1215:1 1348:1 1356:1 1504:1 1646:1 1663:1 1728:1 1827:1 1881:1 1985:1 2044:1 2083:1 2168:1 2194:1 2199:1 2236:1 2259:1 2304:1 2311:1 2342:1 2466:1 2587:1 2601:1 2655:1 2974:1 3219:1 3258:1 3317:1 3437:1 
0.015885387508778156 59:1 97:1 117:2 161:1 285:1 412:1 487:1 653:1 686:1 724:1 849:1 951:1 1014:1 1064:1 1095:1 1151:1 1367:1 1368:1 1613:1 1757:2 1882:1 1883:1 2276:1 2466:1 2692:1 3150:1 
0.0029832751145341804 59:1 84:1 161:1 192:1 244:1 412:1 459:1 653:1 698:1 702:1 745:1 798:1 811:1 832:1 849:2 914:1 1038:1 1091:2 1151:1 1179:1 1215:1 1390:1 1405:1 1561:1 1579:1 1613:1 1840:1 1874:2 1992:2 2195:1 2210:2 2236:1 2327:1 2342:1 2374:1 2423:1 2466:1 2496:1 2530:1 2642:1 2694:1 2701:1 2810:1 2917:1 3179:1 3219:1 3273:1 3449:1 
0.012206392883896137 59:1 104:1 161:1 162:1 308:1 412:1 539:1 653:1 698:1 777:1 935:1 982:1 1016:1 1151:1 1277:1 1355:1 1625:1 1641:1 1894:1 2201:1 2416:1 2466:1 2475:1 2485:1 2811:1 2823:1 2866:1 3022:1 3052:1 3079:1 
0.003394876545423183 59:1 92:1 117:1 161:1 244:1 412:1 512:1 653:1 874:1 953:1 1014:1 1084:1 1129:1 1151:1 1179:1 1316:1 1430:1 1508:1 1757:1 1824:1 1827:1 1902:1 2089:1 2202:1 2256:1 2299:1 2466:1 2561:1 2568:1 2718:1 2810:1 2917:1 3018:1 3050:1 3189:1 3229:1 3439:1 
0.0099639524689584952 59:1 161:1 192:1 195:1 412:1 653:1 662:1 757:1 797:1 802:1 1099:1 1151:1 1358:1 1574:1 1623:2 1757:1 1824:1 2199:1 2376:1 2466:1 2481:1 2496:1 2699:1 2810:1 2934:1 3476:1 
0.010066108793620099 59:1 161:1 412:1 653:1 1151:1 1827:1 2194:1 2259:1 2304:1 2466:1 2587:1 2601:1 2974:1 
0.013234148734122915 469:1 998:1 1117:1 1179:2 1190:1 1358:1 1385:1 1429:1 1432:2 1757:1 1963:1 1996:1 2044:1 2161:1 2231:1 2276:1 2369:1 2384:1 2405:1 2528:1 2580:1 2721:1 2740:1 2795:1 2917:1 3129:1 3147:1 3198:1 3355:1 
0.0081689733933212969 108:1 244:3 460:1 512:1 811:1 1095:1 1111:1 1130:1 1344:1 1385:1 1430:1 1579:1 1588:1 1668:1 1681:1 2037:1 2044:1 2161:1 2172:1 2212:1 2253:1 2276:1 2307:1 2374:1 2384:1 2393:1 2538:1 2739:1 2810:1 2811:1 2874:1 3091:1 3277:1 3326:1 
0.0012915493400942075 59:1 92:1 149:1 161:1 179:1 412:1 595:1 653:1 687:1 699:1 893:1 964:1 1092:1 1151:1 1385:1 1508:1 1520:1 1736:1 1804:1 1918:1 1980:1 2044:1 2110:1 2161:1 2207:1 2219:1 2384:1 2466:1 2670:1 
0.0031215946969474586 59:1 134:1 143:1 161:1 244:1 412:1 531:1 648:1 653:1 833:1 847:1 854:1 1037:1 1043:1 1056:1 1121:1 1151:1 1164:1 1179:1 1185:1 1237:1 1293:1 1329:1 1355:1 1374:1 1417:1 1579:1 1773:1 1792:1 1942:1 1963:1 2077:1 2188:1 2199:1 2281:1 2374:1 2466:1 2519:1 2647:1 2778:1 2810:1 2832:1 2913:1 2916:1 2917:2 2995:1 3083:1 3302:1 3437:1 
0.0054031393640705284 26:1 59:1 149:1 156:1 161:1 412:1 415:1 467:2 590:1 653:1 843:1 845:1 1081:1 1111:1 1151:1 1185:1 1331:1 1341:1 1344:1 1367:1 1508:1 1588:1 1631:1 1730:1 1901:1 2044:1 2127:1 2202:1 2361:1 2386:1 2397:1 2450:2 2466:1 2499:1 2732:1 2768:1 2789:1 3091:1 
0.0090843913812756784 28:1 59:1 117:1 161:1 163:1 204:1 379:1 412:1 432:1 547:1 605:1 653:1 760:1 872:1 1014:1 1151:1 1623:1 1672:1 1757:1 1821:1 1831:1 1984:1 2120:1 2208:1 2234:1 2302:1 2324:1 2466:1 2480:1 2953:1 3212:1 3216:1 
0.0066582984586000217 25:1 59:1 139:1 161:1 169:1 244:1 393:1 412:1 447:1 653:1 687:1 699:1 700:1 701:1 730:1 750:1 811:1 849:1 872:1 913:1 976:1 1038:1 1151:1 1219:1 1370:1 1403:1 1564:1 1579:1 1615:1 1636:1 1894:1 1901:1 1918:1 2044:1 2295:1 2298:1 2351:1 2374:2 2396:1 2466:1 2551:1 2736:1 3122:1 3168:1 3216:1 3258:1 3273:1 
0.0011535929902825673 59:1 117:1 143:1 161:1 181:1 202:1 380:1 412:1 653:1 811:1 816:1 832:1 847:1 998:1 1014:1 1091:1 1137:1 1151:1 1332:1 1367:1 1385:1 1486:1 1757:1 2047:1 2077:1 2161:1 2199:2 2466:1 2499:1 2616:1 2642:1 2690:1 2701:1 2718:1 2810:1 2901:1 2932:1 3118:1 3219:1 3437:1 
0.10800317847447184 59:1 161:1 244:1 412:1 430:1 653:1 698:1 885:1 982:1 1151:1 1355:1 1432:1 1579:1 1827:1 2194:1 2259:1 2304:1 2374:1 2466:1 2485:1 2587:1 2601:1 2974:1 3352:1 
0.0070480902867795601 59:1 92:1 117:1 122:1 161:1 412:1 504:1 544:1 653:1 750:1 811:1 847:1 872:1 924:1 1014:1 1087:1 1151:1 1320:1 1376:1 1437:1 1508:1 1615:1 1628:1 1638:1 1757:1 1815:1 1963:1 2110:1 2466:1 2815:1 2865:1 2901:1 2935:1 3216:1 
0.027736613493476937 59:1 161:1 244:1 363:1 412:1 653:1 746:1 1151:1 1290:1 1467:1 1508:1 1579:1 2371:1 2374:1 2466:1 3198:1 3470:1 3475:1 3491:1 
0.019164739589735271 59:1 110:1 161:1 244:1 293:1 412:1 653:1 1151:1 1355:1 1579:1 1676:1 1693:1 2276:1 2374:1 2466:1 2770:1 2877:1 
0.013212281850030261 25:1 36:1 59:1 92:1 134:1 161:1 356:1 393:1 412:1 526:1 543:1 571:1 652:1 653:1 689:1 811:1 1151:1 1219:1 1344:1 1348:1 1432:1 1508:1 1588:1 1646:1 1736:1 1905:1 1963:1 2202:1 2298:1 2324:1 2466:1 2481:1 2484:1 2785:1 3091:1 3168:1 3324:1 
0.032301266516152116 59:1 156:1 158:1 161:1 175:1 244:1 412:1 517:1 653:1 866:1 956:1 1151:1 1429:1 1456:1 2253:1 2332:1 2395:1 2436:1 2466:1 2538:1 2616:1 2807:1 2811:1 2826:1 2869:1 3070:1 3077:1 3326:1 3385:1 3392:1 
0.0043664902741282919 28:1 59:1 97:1 244:1 266:1 400:1 432:1 512:1 656:1 702:1 746:1 750:1 759:1 780:1 849:1 885:1 974:1 1038:1 1215:1 1516:1 1588:1 1646:1 1676:1 1901:1 2111:1 2199:1 2226:1 2231:1 2236:1 2254:1 2276:1 2277:1 2342:1 2481:1 2545:1 2780:1 2862:1 2966:1 3038:1 3273:1 3275:1 3326:1 3351:1 3403:1 
0.062945565675797843 59:1 135:1 161:1 412:1 432:1 653:1 996:1 1132:1 1151:1 1426:1 1979:1 2044:1 2466:1 2768:1 2914:1 3062:1 
0.0013245433598623305 59:1 117:1 127:1 161:1 217:1 244:1 409:1 412:1 653:1 997:1 1014:1 1151:1 1570:1 1576:1 1579:1 1588:1 1646:1 1678:1 1757:1 1827:1 1896:1 2194:1 2259:1 2294:1 2302:1 2304:1 2374:2 2466:1 2587:1 2601:1 2974:1 3100:1 3104:1 3121:1 3212:1 3327:1 
0.0056221090633304747 105:1 162:1 244:1 324:1 410:1 512:1 578:1 694:1 698:1 723:1 793:1 815:1 847:1 1028:1 1135:1 1348:1 1525:1 1604:1 1623:1 1646:1 1649:1 1769:1 2188:1 2199:1 2247:1 2259:1 2261:1 2304:1 2466:1 2472:1 2473:1 2485:1 2587:1 2601:1 2621:1 2778:1 2813:1 2901:1 2913:1 2994:1 3326:1 3411:1 
0.0028503820768186377 36:1 59:1 78:1 97:1 161:1 409:1 412:1 653:1 811:2 832:1 865:1 874:1 951:1 1084:1 1151:1 1312:1 1368:1 1381:1 1386:1 1452:1 1639:1 1794:1 1874:1 1882:1 1932:1 2005:1 2064:1 2103:1 2466:1 2642:1 2701:1 3034:1 3179:1 3212:1 3219:1 3321:1 
0.25 777:1 811:1 832:1 874:1 1386:1 1794:1 1932:1 2064:1 2236:1 2349:1 2642:1 2701:1 3179:1 3219:1 
0.022245424151369184 59:1 117:1 137:1 161:1 244:1 412:1 653:1 874:1 1014:1 1151:1 1757:1 1866:1 1932:1 2016:1 2281:1 2466:1 2519:1 2913:1 2957:1 2995:1 3392:1 
0.0011793431624556208 59:1 161:1 412:1 459:1 590:2 653:1 769:1 770:1 1151:1 1185:1 1378:1 1538:1 1748:1 1757:1 1767:1 1827:1 1979:1 2019:1 2124:2 2188:1 2194:1 2259:1 2304:2 2466:1 2493:1 2587:1 2601:1 2917:1 2974:1 3403:2 
0.21967815385267642 816:1 847:1 1112:1 1179:1 1385:1 1681:1 2047:1 2499:1 2810:1 2901:1 2917:1 3106:1 
0.25 134:1 159:1 489:1 1135:1 1963:1 2449:1 2890:1 3182:1 
0.0022964399785273077 19:1 36:1 107:1 117:1 267:1 344:1 403:1 557:1 784:1 807:1 834:1 847:1 872:1 885:1 1014:1 1092:1 1111:1 1216:1 1268:1 1274:1 1344:1 1492:1 1588:1 1666:1 1678:1 1713:1 1757:1 1861:1 1978:1 2110:1 2141:1 2183:1 2219:1 2259:1 2302:1 2317:1 2409:1 2436:1 2521:1 2600:1 2656:1 2777:1 2810:2 2913:1 3075:1 3091:1 3176:1 3179:1 3212:1 3219:1 3351:1 3458:1 
0.0040476787813903247 169:1 170:1 235:1 319:1 446:1 556:1 698:1 721:1 794:1 811:1 872:1 900:1 913:1 1170:1 1185:1 1348:1 1372:1 1378:1 1604:1 1615:1 1649:1 1671:1 1794:1 1914:1 1979:1 2004:1 2095:1 2116:1 2167:1 2223:1 2238:1 2336:1 2350:1 2373:1 2423:1 2485:1 2551:1 2561:1 2785:1 2916:1 2917:1 2994:1 3179:1 3219:1 3260:1 3314:1 3447:1 
0.025222218445508645 59:1 161:1 244:1 412:1 653:1 810:1 847:1 849:1 1151:1 1579:1 1613:1 1942:1 2205:1 2374:1 2436:1 2466:1 2497:1 2779:1 2810:1 3075:1 
0.0063725532150836839 59:1 127:1 143:1 161:1 195:1 244:1 248:1 410:1 412:1 432:1 445:1 559:1 653:1 811:2 832:1 849:2 1038:1 1137:1 1151:1 1284:1 1367:1 1437:1 1526:1 1538:1 1570:1 1579:2 1671:1 1798:1 1813:1 1818:1 2019:1 2077:1 2170:1 2199:1 2223:1 2304:1 2374:2 2466:1 2642:1 2701:1 2761:1 2890:1 3219:1 3279:1 3410:1 3437:1 
0.0082758919871029901 114:1 217:2 292:1 409:2 432:1 595:1 657:1 811:1 849:2 862:1 1038:1 1117:1 1121:1 1452:1 1576:2 1613:1 1896:2 1914:1 2044:1 2105:1 2203:1 2213:1 2433:1 2569:1 2891:1 2901:1 3009:1 3121:2 3198:1 3212:1 
0.0043762607079538317 28:1 66:1 70:2 139:1 175:1 306:1 409:1 432:1 452:1 811:1 832:1 849:1 998:1 1038:1 1092:1 1111:1 1113:1 1121:1 1127:1 1188:1 1212:1 1344:1 1367:1 1390:1 1409:1 1486:1 1561:1 1564:1 1566:1 1588:1 1757:1 1854:1 1855:1 2044:1 2161:1 2188:1 2199:1 2226:1 2332:1 2480:1 2530:1 2616:1 2642:1 2701:1 3046:1 3061:1 3091:1 3118:2 3219:1 3258:1 3449:1 
0.0029892164810679149 86:1 104:1 117:1 139:1 178:1 184:1 377:1 661:1 755:1 787:1 811:1 1014:1 1041:1 1049:1 1083:1 1179:1 1215:2 1331:1 1392:1 1432:1 1518:1 1599:1 1642:1 1757:1 1942:1 2014:1 2017:1 2044:1 2199:1 2205:1 2236:2 2244:1 2293:1 2342:2 2452:1 2492:1 2530:1 2579:1 2717:1 2821:1 2866:1 2917:1 2992:1 2995:1 2996:1 3084:1 3255:1 
0.0097514839810398865 34:1 78:1 159:1 195:1 244:1 410:1 468:1 475:1 543:2 662:1 811:3 976:1 1074:1 1135:1 1293:1 1312:1 1442:1 1588:1 1626:1 1678:1 1905:1 2294:1 2295:1 2302:1 2441:1 2481:1 2811:1 2874:1 2941:1 2947:1 3100:1 3122:1 3212:1 3327:1 
0.010389635942360162 59:1 122:1 161:1 192:1 217:1 409:1 412:1 504:1 653:1 703:1 750:1 849:1 914:1 929:1 1038:1 1151:1 1576:1 1815:1 1827:1 1896:1 2194:1 2259:1 2304:1 2466:1 2587:1 2601:1 2810:1 2974:1 3121:1 
0.013107942205124196 59:1 127:1 161:1 162:1 244:1 412:1 590:1 653:1 660:1 843:1 1151:2 1452:1 1746:1 2044:1 2127:1 2330:1 2466:1 2472:1 2519:1 2768:1 2995:1 3212:1 
0.019369107374943826 59:1 69:1 161:1 249:1 412:1 653:1 654:1 759:1 1092:1 1151:1 1215:1 1355:1 1367:1 1579:1 1646:1 2110:1 2219:1 2236:1 2342:1 2374:1 2466:1 3275:1 3404:1 3418:1 
0.043086021213814961 59:1 161:1 412:1 648:1 653:1 1151:1 1445:1 1638:1 2466:1 2926:1 2947:1 3011:1 3012:1 3028:1 3188:1 
0.0047205322352325396 36:1 39:1 59:2 83:1 115:1 161:1 267:1 412:1 432:2 460:1 504:1 530:1 653:1 750:1 872:1 996:1 1011:1 1151:1 1219:1 1284:1 1290:1 1367:1 1615:1 1731:1 1732:1 2037:1 2212:1 2297:1 2437:1 2466:1 2616:1 2730:1 3062:1 3089:1 3150:1 3216:1 
0.026382309138846292 28:1 86:1 139:1 244:1 266:1 377:1 432:1 436:1 849:1 1038:1 1212:1 1432:1 1521:1 1579:1 1666:1 1704:1 1757:1 2044:1 2141:1 2188:1 2253:1 2374:1 2538:1 3062:1 3255:1 3326:1 
0.0066113368222994609 59:1 117:1 161:1 202:1 209:1 232:1 274:1 412:1 468:1 653:1 662:1 777:1 844:1 1014:1 1151:1 1392:1 1757:1 2185:1 2199:1 2287:1 2466:1 2481:1 2584:1 2778:1 2898:1 2936:1 2947:1 3009:1 3012:1 3278:1 
0.01837926642552595 59:1 84:1 131:1 134:1 161:1 224:1 244:1 295:1 412:1 648:1 653:1 750:1 1151:1 1405:1 1570:1 1739:1 1892:1 1901:1 1963:1 2455:1 2466:1 2691:1 2992:1 3216:1 3265:1 
0.25 432:1 996:1 1190:1 1409:1 1432:1 2380:1 2480:1 2721:1 2939:1 3062:1 
0.00023600995178273389 40:1 59:1 127:1 151:1 161:1 191:1 244:1 349:1 412:1 445:1 447:1 556:1 652:1 653:1 789:2 811:1 951:1 1056:1 1084:1 1151:1 1237:1 1270:1 1311:1 1329:1 1376:1 1423:1 1467:1 1574:1 1579:1 1627:1 1670:1 1768:1 1813:1 1823:1 1827:1 1942:1 1968:1 1974:1 2044:2 2097:1 2188:1 2205:1 2258:1 2331:1 2351:1 2354:1 2371:1 2374:1 2466:1 2481:1 2593:1 2637:1 2717:1 2795:1 2927:1 3118:1 3470:1 3491:1 
0.0176210357249218 36:1 38:1 59:1 117:1 161:1 195:1 412:1 475:1 526:1 559:1 652:1 653:1 662:1 1014:1 1099:1 1151:1 1288:1 1599:1 1757:1 2466:1 2481:1 2519:1 2995:1 3355:1 
0.0030892352768852036 40:1 59:1 127:1 151:1 161:1 191:1 244:1 349:1 412:1 445:1 447:1 556:1 652:1 653:1 789:2 811:1 951:1 1056:1 1151:1 1237:1 1270:1 1311:1 1329:1 1376:1 1423:1 1467:1 1574:1 1579:1 1627:1 1670:1 1768:1 1823:1 1942:1 1968:1 1974:1 2044:2 2097:1 2188:1 2205:1 2331:1 2351:1 2371:1 2374:1 2466:1 2481:1 2616:1 2637:1 2717:1 2795:1 2927:1 3118:1 3470:1 3491:1 
0.019621259964253911 59:1 161:1 195:1 274:1 412:1 459:1 653:1 1151:1 1216:1 1367:1 1749:1 1830:1 1887:1 2044:1 2187:1 2260:1 2295:1 2466:1 2605:1 3134:1 3299:1 
0.0061311132928060117 40:1 59:1 170:1 244:1 379:1 430:1 556:1 572:1 652:1 828:1 834:1 849:1 872:1 885:1 1038:1 1056:1 1237:1 1329:1 1432:1 1452:1 1879:1 1968:1 2206:1 2253:1 2481:1 2538:1 2562:1 2597:1 2656:1 2913:1 2975:1 3212:1 3219:1 3265:1 3326:1 3352:1 3458:1 
0.088156494580546904 178:1 661:1 755:1 811:1 1219:1 1355:1 1508:1 1599:1 2169:1 2297:1 2351:1 2492:1 2819:1 2837:1 2972:1 3141:1 3150:1 
0.25 59:1 161:1 412:1 653:1 1151:1 2466:1 3355:1 
0.0052798470664406245 114:1 412:2 432:1 632:1 657:1 682:1 697:1 874:1 950:1 1084:1 1153:1 1154:1 1342:1 1827:1 1932:1 2134:1 2194:1 2259:1 2304:1 2405:1 2481:1 2572:1 2587:1 2601:1 2683:1 2821:1 2974:1 2994:1 3098:1 
0.0019189626947114086 36:1 59:1 158:2 161:1 195:1 248:1 412:1 509:1 603:1 620:1 653:1 811:1 844:1 846:1 924:1 935:1 988:1 1110:1 1111:1 1151:1 1320:1 1323:1 1344:2 1579:1 1588:1 1596:1 1628:1 1663:1 1813:1 1818:1 1827:1 1985:1 2083:1 2089:1 2194:1 2259:1 2304:1 2311:1 2340:1 2374:1 2405:1 2466:1 2525:1 2568:1 2587:1 2601:1 2770:1 2795:1 2811:1 2869:1 2974:1 3075:1 3091:1 3140:1 3260:1 3297:1 3317:1 3410:1 
0.0013008726152537325 59:1 69:1 97:1 117:1 161:1 162:1 244:1 317:1 412:1 547:1 653:1 656:1 760:1 872:1 942:1 1003:1 1014:1 1084:1 1127:1 1151:1 1185:1 1355:1 1378:1 1450:1 1452:1 1579:1 1672:1 1679:1 1757:1 1979:1 2086:1 2234:1 2304:1 2374:1 2466:1 2472:1 2481:1 2756:1 2917:1 3212:1 3216:1 3364:1 
0.0057340107850817916 97:1 367:2 422:1 516:2 706:1 797:1 924:1 1092:2 1219:1 1268:1 1320:1 1602:1 1628:1 2104:1 2112:2 2219:2 2297:1 2754:1 2773:1 3150:1 
0.0048444448856365301 59:1 161:1 200:1 412:1 426:1 458:1 653:1 768:1 801:1 814:1 1151:1 1277:1 1372:1 1598:1 1674:1 1678:1 1728:1 1887:1 1925:1 1992:1 2180:1 2244:1 2302:1 2362:1 2466:1 2469:1 2825:1 2901:1 3040:1 3212:1 3262:1 3423:1 
0.0038848016195679271 47:1 59:1 92:1 161:1 175:1 178:1 248:1 292:1 329:1 412:1 620:1 652:1 653:1 661:1 755:1 811:2 862:1 1066:1 1151:2 1411:1 1508:1 1579:1 1599:1 1736:1 2317:1 2374:1 2466:1 2492:1 2543:1 2616:1 2690:1 2811:1 2869:1 2901:1 3009:1 3170:1 3410:1 
0.067014931299349004 217:1 409:1 1576:1 1827:1 1833:1 1896:1 2194:1 2259:1 2304:1 2418:1 2587:1 2601:1 2974:1 3116:1 3121:1 
0.013443408474277017 24:1 59:1 130:1 161:1 244:1 377:1 390:1 400:1 412:1 464:1 653:1 750:1 1151:1 1355:1 1579:1 1668:1 1895:1 2044:1 2172:1 2295:1 2304:1 2374:1 2466:1 3134:1 3328:1 
0.0039373801954497353 36:1 59:1 97:2 161:1 175:1 326:1 409:1 412:1 544:1 652:1 653:1 656:1 759:1 845:1 1092:1 1151:2 1214:1 1348:1 1392:1 1432:1 1525:1 1538:1 1646:2 1718:1 2019:1 2110:1 2167:1 2199:1 2219:1 2223:1 2277:1 2278:1 2304:1 2370:1 2466:1 2530:1 2616:1 2787:1 2811:1 2813:1 2866:1 2869:1 2881:1 2891:1 2980:1 2995:1 3238:1 3275:1 
0.062323294433847314 460:1 811:2 832:1 952:1 1412:1 1827:1 1938:1 2194:1 2204:1 2259:1 2304:1 2307:1 2393:1 2551:1 2587:1 2601:1 2642:1 2701:1 2974:1 3219:1 3277:1 
0.0022550336468526943 49:1 59:1 84:1 127:1 139:1 158:1 161:1 175:1 195:1 412:1 468:1 642:1 653:1 789:1 874:1 909:1 913:1 1121:1 1151:1 1364:1 1406:1 1411:1 1417:1 1570:1 1623:1 1797:1 1838:1 1839:1 2044:1 2056:1 2191:1 2195:1 2368:1 2374:1 2405:2 2415:1 2453:1 2466:1 2502:1 2547:1 2578:2 2616:1 2811:1 2869:1 3016:1 3026:1 3150:1 3218:1 3258:1 
0.0021010488381813597 59:1 92:1 97:1 161:1 217:1 244:3 302:1 409:1 412:1 422:1 512:1 653:1 681:1 767:1 780:1 849:1 983:1 1038:1 1117:1 1148:1 1151:1 1212:1 1268:1 1311:1 1416:1 1437:1 1508:1 1576:1 1579:1 1736:1 1757:1 1896:1 1901:1 2188:1 2344:1 2374:1 2466:1 2524:1 2621:1 2786:1 2811:1 2874:1 2897:1 2915:1 3121:1 3198:1 
0.0095382220056336089 135:1 191:1 244:1 305:1 316:1 445:1 459:1 464:1 512:1 789:1 949:1 1114:1 1132:1 1275:1 1334:1 1574:1 1588:1 1753:1 1979:1 2044:1 2187:1 2274:1 2294:1 2349:1 2390:1 2519:1 2690:1 2728:1 2786:1 2795:1 2801:1 2914:1 2995:1 3100:1 3150:1 3170:1 
0.0061499749692472162 59:1 161:1 175:1 178:1 200:1 244:1 290:1 412:1 430:1 653:1 661:1 755:1 816:1 885:1 1091:1 1151:1 1432:1 1575:1 1599:1 1827:1 1874:1 1992:1 2194:1 2210:1 2259:1 2304:1 2466:1 2492:1 2503:1 2587:1 2601:1 2616:1 2811:2 2869:1 2874:1 2890:1 2974:1 3051:1 3352:1 
0.25 1678:1 2302:1 3212:1 
0.016726554352575626 39:1 59:1 161:1 412:1 530:1 653:1 952:1 1151:1 1415:1 1813:1 1827:1 2258:1 2354:1 2442:1 2466:1 2593:1 2615:1 2616:1 2637:1 2810:1 2992:1 3118:1 
0.1825177491096435 117:1 221:1 280:1 663:1 997:1 1014:1 1179:1 1324:1 1757:1 2917:1 2931:1 3098:1 3184:1 
0.25 86:1 139:1 377:1 1432:1 2044:1 3255:1 
0.011102315575689898 59:1 86:1 184:1 191:1 244:2 467:1 512:1 866:1 1092:1 1432:1 1452:1 1566:1 1579:1 1678:1 2110:1 2219:1 2253:1 2302:1 2333:1 2374:1 2436:1 2452:1 2538:1 2717:1 2795:1 3070:1 3077:1 3212:2 3255:1 3326:1 
0.021628301044963587 143:1 178:1 430:1 661:1 755:1 762:1 885:1 1432:1 1599:1 1690:1 1827:1 2077:1 2167:1 2194:1 2199:1 2259:1 2304:1 2492:1 2587:1 2601:1 2974:1 3352:1 3437:1 
0.0059133402739754096 25:1 59:2 161:1 169:1 195:1 206:1 268:1 393:1 409:1 412:1 415:1 464:1 653:1 662:1 706:1 797:1 849:1 907:1 913:1 1038:1 1151:1 1187:1 1341:1 1396:1 1508:1 1512:1 1631:1 2277:1 2291:1 2391:1 2423:1 2466:1 2551:1 2823:1 2871:1 2962:1 3022:1 3061:1 3078:1 3179:1 
0.037975948300229004 59:1 161:1 412:1 653:1 1092:1 1151:1 1341:1 1358:1 1508:1 1631:1 1671:1 1757:1 2110:1 2167:1 2219:1 2223:1 2466:1 2934:1 
0.0025482098377388475 59:1 161:1 192:1 244:1 412:1 431:1 653:1 1151:1 1219:1 1342:1 1453:1 1574:1 1579:1 2297:1 2338:2 2374:1 2466:1 2810:1 3150:1 3230:1 
0.0030354881404633942 25:1 59:1 92:1 161:1 162:1 393:1 412:1 462:1 521:1 590:1 653:1 765:1 816:1 820:1 847:1 1135:1 1151:1 1385:1 1393:1 1508:1 1674:1 1716:1 1736:1 2047:1 2124:1 2244:2 2249:1 2261:1 2351:1 2441:1 2466:1 2474:1 2480:1 2499:1 2530:1 2616:1 2781:1 2810:1 2837:1 2901:1 3141:1 
0.0011689728561650092 59:1 135:1 157:1 161:1 412:1 653:1 779:1 820:1 888:1 1151:1 1311:1 1355:1 1894:1 1979:1 2234:1 2351:1 2414:1 2449:1 2450:1 2466:1 2524:1 2977:1 2991:1 3372:1 
0.000390989692886123 59:1 114:1 161:1 412:1 653:1 657:1 849:1 1038:1 1151:1 1185:1 1378:1 1827:1 1894:1 1979:1 2194:1 2201:1 2253:1 2259:1 2304:1 2466:1 2481:1 2538:1 2587:1 2601:1 2821:1 2917:1 2974:1 2994:1 3326:1 
0.0022507443410971421 168:1 244:1 383:1 448:1 460:1 475:1 533:1 660:1 677:1 683:1 685:1 767:1 817:1 820:1 927:1 975:1 1092:1 1423:1 1437:1 1588:1 1623:1 1675:1 1788:1 1915:1 2010:1 2110:1 2191:1 2211:1 2217:1 2219:1 2227:3 2255:1 2268:1 2294:1 2351:2 2507:1 2532:1 2547:1 2551:1 2690:1 2717:1 2780:1 2897:1 3100:1 3250:1 3327:1 
0.20764982064482085 67:1 117:1 149:1 467:1 1014:1 1099:1 1678:1 1757:1 2302:1 2450:1 2480:1 3212:1 
0.0080752938313135188 39:1 127:1 291:1 394:1 470:1 530:1 658:1 811:1 847:1 872:1 1056:1 1111:1 1237:1 1329:1 1344:1 1358:1 1452:1 1588:1 1757:1 1813:1 1818:1 1914:1 1968:1 2102:1 2203:1 2274:1 2442:1 2583:1 2637:1 2795:1 2810:1 2934:1 2992:1 3091:1 3118:1 3212:1 3219:1 
0.010050273065873219 59:1 83:1 92:1 161:1 229:1 334:1 412:1 432:1 653:1 849:1 851:1 888:1 1038:1 1151:1 1284:1 1348:1 1367:1 1452:1 1508:1 1525:1 1568:1 1646:1 1736:1 2110:1 2219:1 2374:1 2466:1 2519:1 2522:1 2675:1 2880:1 2995:1 3212:1 3325:1 3370:1 3374:1 
0.25 1:1 244:1 846:1 1122:1 1176:1 1177:1 2795:1 2806:1 3265:1 3287:1 3411:1 
0.25 69:1 749:1 1092:1 1358:1 1552:1 1757:1 2110:1 2219:1 2491:1 2934:1 3403:1 
0.0061982973390600797 59:1 139:1 161:1 244:1 334:1 377:1 412:1 653:1 811:1 1056:1 1151:1 1239:1 1329:1 1579:1 1668:1 2016:1 2044:1 2172:1 2234:1 2280:1 2374:1 2466:1 2526:1 2819:1 2890:1 2901:1 2977:1 
0.021555128595269139 28:1 217:1 266:1 409:1 432:1 448:1 751:1 789:1 824:1 872:1 1076:1 1161:1 1371:1 1576:1 1675:1 1724:1 1794:1 1896:1 1901:1 1931:1 2044:1 2268:1 2356:1 2492:1 2555:1 2690:1 3121:1 3219:1 3286:1 3442:1 
0.0082713694388185256 28:1 59:1 114:1 161:1 190:1 244:1 412:1 432:1 512:1 653:1 657:1 661:1 750:1 872:1 1151:1 1564:1 1615:1 2111:1 2199:1 2259:1 2466:1 2481:2 2519:1 2600:1 2779:1 2781:1 2821:1 2966:1 2994:1 3216:1 3250:1 
0.0014574496620817427 39:1 58:1 59:1 143:1 161:1 195:1 412:1 467:1 530:1 560:1 586:1 653:1 759:1 767:1 988:1 1053:1 1151:1 1175:1 1177:2 1179:1 1190:2 1202:1 1233:2 1298:1 1406:1 1432:1 1443:1 1646:1 1949:1 1995:1 1998:1 2044:1 2077:1 2156:2 2199:1 2368:1 2442:1 2443:1 2453:1 2466:1 2721:2 2813:1 2853:1 2896:1 2897:1 2970:1 2992:1 3288:1 3437:1 3456:1 
0.0014010463869155408 59:1 161:1 175:1 292:1 412:1 653:1 777:1 811:1 816:1 847:1 849:1 862:1 872:1 1038:1 1049:1 1121:1 1151:1 1185:1 1211:1 1215:1 1348:1 1374:1 1385:1 1588:1 1646:1 1942:1 2047:1 2174:1 2236:1 2293:1 2342:1 2466:1 2499:1 2585:1 2626:1 2810:1 2811:1 2815:1 2869:1 2901:2 2917:1 2933:1 3009:1 3025:1 3084:1 3138:1 3218:1 
0.0014428560429972054 28:1 79:1 127:1 137:1 149:1 266:1 432:1 702:1 706:1 746:1 780:1 797:1 846:1 972:1 1056:1 1219:4 1237:1 1329:1 1384:1 1392:1 1439:1 1516:1 1602:1 1653:1 1679:1 1886:1 1901:1 2016:1 2031:1 2179:1 2199:1 2281:1 2297:3 2299:1 2304:1 2446:1 2669:1 2702:1 2737:1 2754:1 2801:1 2821:1 2913:1 2921:1 2992:1 3150:3 3179:1 3273:1 3303:1 
0.10441155621246738 59:1 128:1 161:1 412:1 653:1 698:1 700:1 1151:1 1874:1 2466:1 3273:1 
0.005648349098834232 38:1 59:1 161:1 175:1 412:1 475:1 526:1 559:1 653:1 789:1 1151:1 1288:1 1741:1 1768:1 1823:1 1825:1 2044:1 2188:1 2230:1 2259:1 2265:1 2466:1 2519:1 2600:1 2627:1 2781:1 3041:1 3430:1 
0.0013914822944481582 59:1 136:1 161:1 244:1 359:1 409:1 412:2 432:1 459:1 540:1 653:1 682:1 790:1 794:1 1084:1 1151:1 1153:1 1293:1 1355:1 1579:1 1757:1 1827:1 1894:1 1896:1 1999:1 2017:1 2188:1 2194:1 2238:1 2259:1 2295:1 2304:1 2350:1 2373:1 2374:1 2466:1 2587:1 2601:1 2974:1 3121:2 3228:1 
0.0031367018191232536 40:1 59:1 109:1 117:1 161:1 195:1 280:1 362:1 412:1 487:1 556:1 652:1 653:1 662:1 686:1 1151:1 1538:1 1686:1 1757:1 1883:1 2019:1 2304:1 2466:1 2481:1 2692:1 3007:1 3150:1 3188:1 
0.046522989664441884 2:1 10:1 229:1 1091:1 1092:1 1190:1 1432:1 1874:1 1992:1 2110:1 2199:1 2210:1 2219:1 2227:2 2721:1 2779:1 
0.0028094036255072482 2:1 3:1 59:1 69:1 92:1 161:1 412:1 649:1 653:1 846:1 1110:1 1151:1 1508:1 1827:1 2194:1 2259:1 2304:1 2466:1 2587:1 2601:1 2795:1 2974:1 3075:1 3256:1 3404:1 
0.0027249758545398696 59:1 136:1 139:1 161:1 186:1 412:1 432:1 559:1 653:1 721:1 1151:1 1179:1 1185:1 1284:1 1341:1 1348:1 1374:1 1508:1 1604:1 1631:1 1649:1 1678:1 1874:1 1942:1 1992:1 2044:1 2302:1 2466:1 2480:1 2616:1 2747:1 2838:1 2917:2 3155:1 3212:1 3258:2 
0.0039464970661757743 59:1 117:1 161:1 192:1 244:1 412:1 653:1 872:1 1014:1 1151:1 1219:1 1367:1 1574:1 1579:1 1634:1 1757:1 1984:1 2208:1 2297:1 2338:2 2374:1 2466:1 2810:1 3150:1 3212:1 
0.018238368558553299 36:1 59:1 92:1 136:1 161:1 198:1 244:1 267:1 409:1 412:1 653:1 1151:1 1216:1 1466:1 1508:1 1579:1 1666:1 1736:1 1874:1 1992:1 2141:1 2199:1 2252:1 2374:1 2466:1 2536:1 2881:1 3258:1 3262:1 3487:1 
0.0032734182686201055 59:1 138:1 161:1 162:1 192:1 244:1 412:1 539:1 653:1 777:1 935:1 1016:1 1151:1 1219:1 1355:1 1392:1 1574:1 1579:1 1739:1 2037:1 2199:1 2297:1 2338:2 2374:1 2466:1 2475:1 2735:1 2737:1 2810:1 2823:1 3022:1 3079:1 3150:1 
0.25 135:1 956:1 1132:1 1456:1 1979:1 2914:1 
0.018221438049090842 217:1 409:1 816:1 847:1 1084:1 1385:1 1576:1 1827:1 1896:1 2047:1 2194:1 2259:1 2304:1 2499:1 2587:1 2601:1 2810:1 2901:1 2974:1 3121:1 
0.0057372202700905935 27:1 59:1 161:1 173:1 412:1 421:1 653:1 1151:1 1264:1 1406:1 2368:1 2441:1 2466:1 2597:1 2602:5 3226:1 3389:1 
0.25 59:1 161:1 244:1 412:1 653:1 1151:1 1579:1 2374:1 2466:1 
0.044649147459102187 59:1 161:1 244:1 412:1 653:1 1151:1 1429:1 1579:1 1797:1 2374:1 2466:1 2795:1 3436:1 
0.070549083990722766 40:1 135:1 556:1 652:1 811:1 832:1 874:1 1132:1 1214:1 1355:1 1932:1 1979:1 2228:1 2234:1 2481:1 2642:1 2701:1 2914:1 3219:1 3289:1 
0.010052019134727665 59:1 127:1 161:1 175:1 412:1 653:1 1151:1 1341:1 1508:1 1739:1 1827:1 2194:1 2259:1 2304:1 2332:1 2466:1 2587:1 2601:1 2622:1 2733:1 2926:1 2974:1 
0.0028149232185746215 59:1 105:1 117:1 161:1 191:1 401:1 412:1 445:1 653:1 656:1 706:1 789:1 797:1 811:1 846:1 1014:1 1110:1 1151:1 1179:1 1260:1 1574:1 1602:1 1623:1 1651:1 1757:1 1813:1 1827:1 2047:1 2193:1 2257:1 2304:1 2342:1 2466:1 2481:1 2587:1 2754:1 2795:2 2901:1 2917:1 2974:1 3075:1 3441:1 
0.0035043115647107638 58:1 59:1 130:1 131:1 161:2 178:1 260:1 410:1 412:1 467:2 590:1 591:1 653:1 661:1 755:1 843:1 846:1 988:1 1001:1 1084:2 1132:1 1151:1 1179:1 1219:1 1355:1 1594:1 1599:1 1612:1 1894:1 1901:1 1914:1 2044:1 2127:1 2140:1 2203:1 2254:1 2297:1 2443:1 2458:1 2466:1 2470:1 2492:1 2545:1 2768:1 2795:1 2811:1 2867:1 2917:1 3150:1 3260:1 3326:1 3481:1 
0.042695679911767349 130:1 393:1 399:1 505:1 741:1 811:1 832:1 1280:1 1390:1 1425:1 1561:1 1895:1 1902:1 1965:1 2480:1 2530:1 2642:1 2701:1 2752:1 2836:1 2838:1 3122:1 3155:1 3219:1 3449:1 
0.011142789320917551 39:1 47:1 393:1 530:1 621:1 652:1 1091:1 1151:1 1179:1 1280:1 1588:1 1678:1 1874:1 1965:1 1992:1 2210:1 2294:1 2302:1 2373:1 2398:1 2442:1 2637:1 2837:1 2917:1 2992:1 3100:1 3118:1 3138:1 3212:1 3327:1 
0.095593694458552397 59:1 161:1 412:1 653:1 789:1 1151:1 1608:1 2052:1 2417:1 2466:1 2962:1 3101:1 
0.0042564367860379341 59:1 157:1 161:1 412:1 653:1 1151:1 1179:1 1423:1 1572:1 1671:2 2167:2 2223:2 2234:1 2413:1 2466:1 2717:1 2917:1 2977:1 3302:1 
0.25 232:1 844:1 2185:1 2778:1 3278:1 
0.0241518325854806 847:1 849:1 998:1 1038:1 1049:1 1056:1 1092:1 1219:1 1237:1 1329:1 1358:1 1757:1 1968:1 2110:1 2206:1 2219:1 2293:1 2436:1 2810:1 2921:1 2934:1 2975:1 3075:1 3084:1 3118:1 
0.031965646518369251 117:1 291:1 811:1 846:1 847:1 872:1 1014:1 1355:1 1757:1 2795:1 2806:3 2810:1 3219:1 3411:1 
0.021961309602268934 59:1 114:1 161:1 412:1 653:1 657:1 1151:1 1417:1 1588:1 1676:1 2276:1 2294:1 2404:1 2466:1 2481:1 2532:1 2596:1 2821:1 2838:1 2994:1 3100:1 3163:1 3327:1 
0.25 135:1 1132:1 1979:1 2914:1 
0.0258416587208153 69:1 86:1 432:1 654:1 866:1 996:1 1432:1 1827:1 1833:1 2194:1 2259:1 2304:1 2418:1 2436:1 2587:1 2601:1 2974:1 3062:1 3070:1 3077:1 3116:1 3255:1 3404:1 
0.0073939931453289066 17:1 25:1 156:1 158:1 184:1 232:1 305:1 393:1 467:1 543:1 560:1 586:1 778:1 780:1 811:1 820:1 844:1 866:2 983:1 1098:1 1179:1 1298:1 1311:1 1391:1 1876:1 1901:1 1905:1 2044:1 2110:1 2185:1 2202:1 2332:1 2351:1 2395:1 2436:2 2441:1 2452:1 2524:1 2530:1 2717:1 2778:1 3070:2 3077:2 3250:1 3278:1 3288:1 3324:1 
0.0050327882067683289 59:1 161:1 412:1 459:1 653:1 801:1 1084:1 1151:1 1179:1 1277:1 1367:1 1452:1 1486:1 1639:1 1757:1 1813:1 1818:1 2161:1 2188:1 2354:1 2362:1 2466:1 2593:1 2917:1 3212:1 
0.024091030353563397 59:1 161:1 412:1 566:1 653:1 750:1 872:1 1151:1 1374:1 1615:1 1942:1 2466:1 3216:1 
0.048068524115798657 22:1 59:1 97:1 161:1 412:1 653:1 656:1 802:1 924:1 1151:1 1320:1 1564:1 1628:1 1668:1 2172:1 2374:1 2466:1 2481:1 2496:1 
0.010594733304533989 34:1 36:1 55:1 59:1 97:1 161:1 244:1 412:1 432:1 480:1 653:1 777:1 849:1 957:1 1038:1 1151:1 1284:1 1386:1 1522:1 1579:1 1794:1 1827:1 2064:1 2194:1 2236:1 2259:1 2304:1 2349:1 2374:1 2466:1 2587:1 2601:1 2913:1 2974:1 3017:1 3047:1 3179:1 
0.0045488756423419409 39:1 44:1 59:1 161:1 169:1 171:1 412:1 432:1 530:1 595:1 603:1 652:1 653:1 893:1 984:1 1151:1 1284:1 1341:1 1508:1 1520:1 1625:1 1631:1 1758:1 1827:1 1901:1 1980:1 2016:1 2167:1 2177:1 2207:1 2244:1 2281:1 2295:1 2304:1 2442:1 2466:1 2557:1 2577:1 2585:1 2637:1 2913:1 2992:1 3118:1 3122:1 
0.00029676634609071496 59:1 79:1 108:1 159:1 161:1 173:1 187:1 192:1 244:1 379:1 412:1 445:1 459:1 543:1 653:1 661:1 827:1 1056:1 1151:1 1188:1 1237:1 1329:1 1367:1 1406:1 1573:1 1579:1 1682:1 1757:1 2188:1 2358:1 2366:1 2374:1 2439:1 2446:1 2452:1 2466:1 2519:1 2594:1 2600:1 2616:1 2667:1 2752:1 2810:1 2821:1 2992:1 
0.25 36:1 784:1 1072:1 1492:1 1565:1 1978:1 2317:1 
0.037216584984425781 49:1 59:1 114:1 161:1 412:1 642:1 653:1 657:1 789:1 849:1 1038:1 1151:1 1348:1 1646:1 2056:1 2466:1 2481:1 2821:1 2994:1 3026:1 3150:1 3218:1 
0.25 177:1 750:1 1678:1 1741:1 2302:1 2642:1 3212:1 3216:1 
0.028425509748575231 59:1 133:1 161:1 412:1 575:1 653:1 862:2 1151:1 1296:1 1739:1 1942:1 2403:2 2466:1 2500:2 2926:2 3011:2 
0.06489458326665376 114:1 657:1 1827:1 1833:1 2194:1 2259:1 2304:1 2418:1 2481:1 2587:1 2601:1 2821:1 2974:1 2994:1 3116:1 
0.0076568093792030219 49:1 114:1 642:1 657:1 706:1 789:1 807:1 1221:1 1342:1 1348:1 1602:1 1646:1 1678:1 1991:1 2015:1 2056:1 2234:1 2271:1 2302:1 2304:1 2411:1 2481:1 2723:1 2754:1 2815:1 2819:1 2821:1 2933:2 2977:1 2994:1 3026:1 3150:1 3212:1 3218:1 
0.00045901969066384872 59:1 161:1 244:1 412:1 613:1 653:1 750:1 872:1 1151:1 1179:1 1615:1 2234:1 2466:1 2581:1 2676:1 3216:1 
0.25 134:1 248:1 811:1 1579:1 1739:1 1963:1 2185:1 2374:1 2974:1 3410:1 
0.013955355325215227 59:1 117:1 135:1 161:1 169:1 195:1 412:1 438:1 468:1 627:1 653:1 662:1 913:1 981:1 1151:1 1367:1 1532:1 1533:1 1634:1 1757:1 1883:1 1982:1 2449:1 2466:1 2481:1 2551:1 3062:1 
0.25 232:1 844:1 1423:1 1671:1 2167:1 2185:1 2223:1 2717:1 2778:1 3278:1 3302:1 
0.008195545600555753 17:1 39:1 59:1 117:1 161:1 175:1 195:1 290:1 305:1 412:1 530:1 653:1 662:1 676:1 769:1 811:1 1014:1 1099:1 1151:1 1179:1 1305:1 1731:1 1750:1 1757:1 1767:1 1914:1 2203:1 2364:1 2466:1 2481:1 2616:2 2659:1 2917:1 3169:1 
0.0070414640957809612 47:1 175:1 181:1 207:1 220:1 281:1 382:1 460:1 487:1 620:1 652:1 661:1 677:1 683:1 686:1 770:1 789:1 811:2 832:1 866:1 897:1 992:1 1151:1 1170:1 1341:1 1508:1 1588:1 1631:1 1646:1 1768:1 1788:1 2010:1 2044:1 2191:1 2199:1 2211:1 2294:1 2334:1 2351:1 2436:1 2579:1 2616:1 2642:1 2692:1 2697:1 2701:1 2811:1 2869:1 2916:1 2986:1 2996:1 3070:1 3077:1 3100:1 3150:1 3168:1 3219:1 3327:1 3425:1 
0.042928334610446976 92:1 139:1 169:1 409:1 794:1 913:1 1219:1 1282:1 1439:1 1508:1 1736:1 2044:1 2238:1 2299:1 2350:1 2373:1 2522:1 2551:1 2921:1 3179:1 3258:1 3303:1 
0.0058766044615497356 58:1 161:1 217:1 224:1 409:1 430:1 467:1 591:1 789:1 885:1 988:1 1001:1 1056:1 1139:1 1179:1 1237:1 1329:1 1370:1 1432:1 1576:1 1594:1 1813:1 1818:1 1894:1 1896:1 2044:1 2140:1 2254:1 2443:1 2470:1 2526:1 2545:1 2736:1 2917:1 3121:1 3218:1 3260:1 3326:1 3352:1 
0.10928294983861382 59:1 136:1 161:1 244:1 412:1 653:1 1056:1 1151:1 1237:1 1329:1 1579:1 1874:1 1992:1 2374:1 2466:1 2526:1 3258:1 
0.0044608711395429648 59:1 117:1 139:1 161:1 412:1 653:1 849:1 874:1 1014:1 1151:1 1277:1 1538:1 1613:1 1671:1 1757:1 1813:1 1827:1 1932:1 2016:1 2019:1 2044:1 2167:1 2223:1 2258:1 2282:1 2304:1 2342:1 2354:1 2466:1 2519:1 2593:1 2928:1 2995:1 3042:1 3258:1 3436:1 3441:1 
0.0066447428114331476 97:1 119:1 121:1 135:1 176:1 191:1 244:1 297:1 412:1 507:1 847:1 951:1 1077:1 1095:1 1131:2 1132:1 1165:1 1325:1 1368:1 1430:1 1785:1 1807:1 1882:1 1979:1 2276:1 2628:1 2739:1 2801:1 2810:2 2914:1 3392:1 
0.030637247823761499 175:1 216:1 1138:1 1215:1 1341:1 1508:1 1631:1 1670:1 1827:1 1942:1 2194:1 2205:1 2236:1 2259:1 2304:1 2342:1 2587:1 2601:1 2616:1 2811:1 2869:1 2974:1 3098:1 
0.25 90:1 333:1 655:1 1080:1 1219:1 1852:1 2297:1 2481:1 3150:1 
0.0042323406960740025 59:1 117:1 161:1 221:1 280:1 412:1 653:1 663:1 1014:1 1151:1 1179:1 1757:1 2466:1 2917:1 2926:1 3184:1 
0.009335713155528896 28:1 195:1 200:1 274:1 432:1 459:1 636:1 770:1 789:1 862:1 1092:1 1137:1 1185:1 1374:1 1564:1 1623:1 1749:1 1768:1 1831:1 1942:1 1984:1 2044:1 2110:1 2187:1 2208:1 2219:1 2302:1 2403:1 2480:1 2500:1 2890:1 2917:1 2926:1 3011:1 3155:1 3217:1 
0.0030167448871552273 37:1 59:1 133:1 137:1 161:1 169:1 178:1 412:1 430:1 459:1 507:1 653:1 661:1 755:1 849:1 885:1 893:1 1038:1 1056:1 1132:1 1151:1 1170:1 1237:1 1329:1 1432:1 1599:1 1757:1 1788:1 1827:1 1942:1 1968:1 2016:1 2188:1 2194:1 2259:1 2281:1 2304:1 2466:1 2492:1 2555:1 2587:1 2601:1 2913:1 2974:1 3352:1 
0.025924890197350971 59:1 161:1 244:1 412:1 653:1 1095:1 1151:1 1579:1 2287:1 2374:1 2466:1 2855:1 3008:1 
0.016595645909754833 36:1 47:1 59:1 117:1 161:1 175:1 267:1 412:1 538:1 620:1 652:1 653:1 773:1 874:1 1014:1 1067:1 1151:2 1430:1 1666:1 1757:1 1824:1 1932:1 2009:1 2145:1 2180:1 2211:1 2466:1 2616:1 2810:1 2811:1 2869:1 
0.01167060030616374 191:1 195:1 547:1 662:1 832:1 871:1 874:1 1099:1 1116:1 1179:1 1228:1 1316:1 1385:1 1450:1 1452:1 1483:1 1639:1 1742:1 1802:1 2047:1 2089:1 2481:1 2519:1 2643:1 2741:1 2801:1 2901:1 2917:1 2922:1 3183:1 3212:1 3229:1 
0.015943095272657453 36:1 59:1 139:1 161:1 377:1 412:1 603:1 653:1 706:1 797:1 1151:1 1185:1 1260:1 1374:1 1602:1 1663:1 1827:1 1942:1 1985:1 2044:1 2083:1 2256:1 2311:1 2342:1 2466:1 2561:1 2754:1 2810:1 2917:1 3317:1 3441:1 
0.0028959230906662643 59:1 136:1 156:1 161:1 244:1 412:1 653:1 777:1 811:1 820:1 952:1 1087:1 1134:1 1151:1 1175:1 1177:2 1358:1 1395:1 1415:1 1579:1 1739:1 1757:1 1813:1 1818:1 1928:1 1994:1 2110:1 2153:1 2289:1 2349:1 2374:1 2396:1 2466:1 2530:1 2615:1 2701:1 2810:1 2934:1 
3.4463397104966869e-05 59:1 105:1 115:1 161:1 178:1 244:2 258:1 291:1 375:1 412:1 653:1 661:1 698:1 755:1 811:1 847:1 849:1 872:1 982:1 1038:1 1084:1 1151:1 1452:1 1579:2 1599:1 1646:1 1747:1 1813:1 1818:1 1827:1 2194:1 2259:1 2304:1 2374:2 2466:1 2485:1 2492:1 2587:1 2601:1 2810:1 2974:1 3212:1 3219:1 
0.022833810310187021 192:1 244:1 702:1 704:1 746:1 767:1 780:1 784:1 789:1 1179:1 1358:1 1405:1 1492:1 1516:1 1579:1 1757:1 1901:1 1978:1 2049:1 2317:1 2333:1 2374:1 2694:1 2810:1 2917:1 2934:1 2939:1 3273:1 
0.0099653276297666394 69:1 168:1 200:1 244:1 460:1 512:1 654:1 660:1 811:2 1069:1 1084:2 1312:1 1362:1 1370:1 1452:1 1482:1 1575:1 1627:1 1788:1 1811:1 1894:1 2067:1 2111:1 2215:1 2547:1 2901:1 2966:1 3212:1 3231:1 3404:1 
0.0060317953340929065 59:1 161:1 412:1 459:1 537:2 653:1 755:2 834:1 849:2 872:1 1151:1 1185:1 1355:1 1375:1 1613:2 1833:1 1958:1 2195:1 2466:1 2656:1 2735:1 2917:1 3219:1 3458:1 
0.00024178214595271244 17:1 59:1 117:1 161:1 192:1 244:1 310:1 412:1 557:1 653:1 1014:1 1151:1 1219:1 1265:1 1336:1 1338:1 1574:1 1579:1 1662:1 1757:1 2297:1 2338:2 2374:1 2466:1 2810:1 3150:1 
0.003016545395559954 59:1 105:1 158:1 161:1 164:1 192:1 244:1 375:1 412:1 543:1 638:1 653:1 825:1 913:1 1151:1 1219:1 1574:1 1579:1 1646:1 1821:1 2114:1 2297:1 2338:1 2374:1 2466:1 2506:1 2561:1 2810:1 2926:1 3150:1 3184:1 3260:1 
0.034259904213037144 59:1 161:1 368:1 412:1 653:1 812:1 1000:1 1151:1 1623:1 1671:1 1984:1 2167:1 2208:1 2223:1 2439:1 2466:1 2901:1 3026:1 3150:1 3189:1 3403:1 
0.0014300617674133146 39:1 40:1 59:1 161:1 412:1 452:1 530:1 566:1 653:1 801:2 898:1 1024:1 1099:1 1151:1 1277:2 1374:1 1825:1 1945:1 2053:1 2213:1 2226:1 2362:2 2442:2 2466:1 2504:1 2637:1 2992:2 3118:1 3430:1 
0.010743649400947807 59:1 105:1 117:1 161:1 244:1 412:1 512:1 653:1 656:1 759:1 998:1 1014:1 1091:1 1151:1 1159:1 1623:1 1646:1 1651:1 1757:1 1874:1 1992:1 2111:1 2210:1 2466:1 2481:1 2966:1 3118:1 
0.1887540778099876 59:1 161:1 412:1 653:1 924:1 1151:1 1320:1 1628:1 2466:1 
0.0053993632771088098 59:1 97:1 161:1 244:1 324:1 412:1 417:1 512:1 653:1 704:1 767:1 777:1 872:1 1151:1 1214:1 2111:1 2172:1 2224:1 2249:1 2466:1 2480:1 2683:1 2694:1 2827:1 2966:1 3047:1 3177:1 3218:1 
0.0023884420578994901 59:1 161:1 163:1 175:1 200:1 379:1 391:1 412:1 485:1 653:1 707:1 759:1 811:3 829:1 998:1 1151:1 1179:1 1211:1 1430:1 1575:1 1588:1 1646:1 1748:1 1824:1 1928:1 2048:1 2174:1 2199:1 2213:1 2351:1 2466:1 2485:1 2611:1 2622:1 2779:1 2810:1 2829:1 2901:1 2913:1 2917:1 2940:1 3060:1 3111:1 3123:1 3275:1 
0.25 59:1 161:1 412:1 653:1 1151:1 2466:1 
0.25 59:1 161:1 412:1 653:1 998:1 1151:1 2466:1 3118:1 
0.0040958917438701095 38:1 127:1 131:1 178:1 207:1 421:1 522:1 661:1 755:1 811:1 832:1 874:2 937:1 945:1 1218:1 1283:1 1570:2 1588:1 1599:1 1678:1 1901:1 1932:2 2133:1 2199:1 2276:1 2294:1 2302:1 2334:1 2374:1 2492:1 2579:1 2639:1 2642:1 2701:1 2717:1 2723:1 2996:1 3100:1 3172:1 3212:1 3219:1 3327:1 
0.25 59:1 161:1 412:1 653:1 1151:1 2466:1 
0.0030500907671085395 53:1 178:1 244:3 284:1 512:2 530:1 661:1 702:1 717:1 745:1 755:1 847:1 924:1 975:1 1293:1 1599:1 1666:2 2111:2 2141:2 2244:1 2492:1 2499:1 2662:1 2730:1 2810:1 2811:1 2874:1 2966:2 3273:1 
0.0011969705335081922 59:1 161:1 412:1 653:1 1092:1 1151:1 1358:1 1757:1 2110:1 2219:1 2466:1 2934:1 
0.031534839160043238 59:1 161:1 412:1 653:1 687:1 699:1 750:1 780:1 872:1 983:1 1151:1 1311:1 1615:1 1901:1 1918:1 2466:1 2524:1 3216:1 
0.0026044168808607489 40:1 155:1 169:1 187:1 287:1 409:1 447:1 556:1 652:1 659:1 750:1 757:1 811:1 871:1 872:1 913:1 1136:1 1219:1 1315:1 1355:1 1403:1 1562:1 1615:1 1627:1 1636:1 1710:1 1827:1 1896:1 2194:1 2199:1 2259:1 2298:1 2304:1 2351:1 2386:1 2396:1 2481:1 2551:1 2587:1 2601:1 2753:1 2974:1 3121:1 3168:1 3216:1 3270:1 
0.25 50:1 59:1 161:1 412:1 653:1 1151:1 2466:1 2860:1 
0.00020362059768861922 39:1 59:1 115:1 123:1 159:1 161:1 200:1 376:1 409:1 412:1 543:1 653:1 763:1 788:2 820:1 931:1 998:1 1111:1 1151:1 1344:1 1358:1 1385:1 1452:1 1588:1 1670:2 1696:1 1741:1 1743:1 1757:1 1824:1 1855:1 1942:3 2030:2 2047:1 2205:3 2442:1 2466:1 2519:1 2698:1 2890:1 2898:1 2934:1 3061:1 3091:1 3118:1 3212:1 
0.0070716928863443626 59:1 86:1 127:1 139:1 161:1 377:1 412:1 653:1 658:1 777:1 869:1 1056:1 1151:1 1237:1 1329:1 1432:1 1968:1 2044:1 2206:1 2236:2 2343:1 2349:1 2466:1 2581:1 2975:1 3162:1 3168:1 3255:1 
0.0080246709230222413 59:1 70:1 104:1 161:1 356:1 412:1 653:1 1121:1 1151:1 1179:1 1187:1 1219:1 1341:3 1344:1 1355:1 1396:1 1508:3 1588:1 1631:3 1641:1 1813:1 1827:1 2258:1 2298:1 2304:1 2354:1 2466:1 2593:1 2721:1 2866:1 3091:1 3168:1 3288:1 3328:1 
0.023324367583575194 59:1 161:1 412:2 432:1 653:1 682:1 849:1 1084:1 1151:1 1153:1 1179:1 1348:1 1613:1 1646:1 1942:1 2205:1 2466:1 2579:1 2815:1 2821:1 2917:1 2933:1 2996:1 
0.017610864253122756 59:1 161:1 244:1 292:1 412:1 423:1 512:1 533:1 653:1 681:1 777:1 811:1 832:1 849:1 850:1 1151:1 1214:1 1290:1 2111:1 2155:1 2217:1 2222:1 2236:1 2349:1 2466:1 2642:1 2701:1 2855:1 2966:1 3219:1 3325:1 3412:1 
0.25 59:1 97:1 656:1 2481:1 2842:1 3253:1 
0.21400423173199581 59:1 161:1 412:1 653:1 1151:1 2304:1 2424:1 2466:1 3246:1 3328:1 
0.18483326522736415 59:1 161:1 412:1 417:1 653:1 1151:1 1204:1 1855:1 2466:1 3061:1 
0.25 59:1 97:1 656:1 2481:1 2616:1 2842:1 3253:1 
0.0037287505651329004 34:1 59:1 97:1 159:1 161:1 323:1 410:1 412:1 448:1 475:1 653:1 704:1 767:1 846:1 1135:1 1151:1 1268:1 1290:1 1360:1 1367:1 1385:1 1386:1 1427:1 1612:1 1623:1 1676:1 1791:1 1794:1 1984:1 2049:1 2064:1 2167:2 2199:1 2208:1 2223:2 2281:1 2404:1 2423:1 2441:1 2466:1 2520:1 2532:1 2694:1 2779:1 2795:1 2913:1 2934:1 2976:1 2995:1 3179:2 3250:1 3299:1 
0.25 784:1 1492:1 1978:1 2317:1 
0.0042339288160180956 117:1 217:1 244:3 409:1 421:1 512:3 715:1 820:1 935:1 937:1 945:1 1014:1 1092:1 1283:1 1341:1 1393:1 1477:1 1508:1 1576:1 1631:1 1757:1 1896:1 2110:1 2111:1 2133:1 2219:1 2244:1 2404:1 2519:1 2530:1 2966:1 3121:1 3219:1 3250:1 
0.029032973521692103 25:1 105:1 117:1 244:1 393:1 656:1 784:1 820:1 1014:1 1098:1 1391:1 1492:1 1623:1 1651:1 1757:1 1978:1 2110:1 2317:1 2351:1 2441:1 2481:1 2530:1 3392:1 
0.025803181976116463 59:1 83:1 161:1 175:1 231:1 412:1 496:1 653:1 1020:1 1151:1 1367:1 2446:1 2466:1 2623:1 2811:1 2821:1 2869:1 2947:1 2992:1 3267:1 
0.0010100413879798108 108:1 143:1 244:2 759:1 847:1 1111:1 1188:1 1277:1 1290:1 1341:1 1344:1 1387:1 1406:1 1432:1 1496:1 1508:1 1523:1 1579:2 1588:2 1631:1 1646:1 1682:1 1827:1 2067:1 2077:1 2194:1 2199:1 2259:1 2294:1 2304:1 2358:1 2374:2 2439:1 2587:1 2601:1 2667:1 2810:1 2974:1 3089:1 3091:1 3100:1 3235:1 3275:1 3278:1 3327:1 3385:1 3437:1 
0.0035218778122092361 108:1 143:1 244:2 759:1 847:1 1111:1 1188:1 1277:1 1290:1 1341:1 1344:1 1406:1 1496:1 1508:1 1523:1 1579:2 1588:2 1631:1 1646:1 1682:1 1827:1 2077:1 2194:1 2199:1 2259:1 2294:1 2304:1 2358:1 2374:2 2439:1 2587:1 2601:1 2616:1 2667:1 2810:1 2974:1 3089:1 3091:1 3100:1 3275:1 3278:1 3327:1 3437:1 
0.0050862701994019762 36:1 59:1 161:1 217:1 244:1 361:1 409:1 412:1 432:1 512:1 653:1 830:1 1151:1 1355:2 1576:1 1704:1 1771:1 1809:1 1841:2 1896:1 1902:1 2466:1 2622:1 2661:1 2726:1 2835:1 2836:1 2934:1 2956:2 3062:1 3113:1 3121:1 3122:1 3173:1 
0.021346824752370503 92:1 97:1 131:1 543:1 811:1 891:1 1055:1 1190:1 1217:1 1417:1 1432:2 1508:1 1736:1 1905:1 2007:1 2163:1 2275:1 2437:1 2706:1 2810:1 3047:1 3094:1 3258:1 3379:1 
0.043550828350516026 59:1 105:1 161:1 412:1 459:1 633:1 653:1 935:1 1151:1 1646:1 1757:1 1833:1 2188:1 2466:1 3116:1 3387:1 
0.0018783633649853586 81:1 86:1 117:1 139:1 191:1 236:1 244:1 361:2 377:1 409:1 430:1 459:1 512:1 768:1 771:1 777:1 849:1 885:1 1014:1 1038:1 1342:1 1358:1 1371:1 1432:2 1516:1 1734:1 1757:3 1794:1 1855:1 1901:1 2044:2 2111:1 2169:1 2188:1 2213:1 2493:1 2726:1 2763:1 2803:1 2849:1 2934:1 2966:1 3061:1 3173:1 3178:1 3250:1 3255:1 3323:1 3324:1 3352:1 3397:1 
0.0017159705444392628 59:2 97:1 114:2 117:1 161:1 205:1 248:1 376:2 412:1 464:1 560:1 653:1 662:1 722:1 767:1 779:1 789:1 794:1 811:1 1013:1 1014:1 1099:1 1151:1 1290:1 1392:1 1437:1 1579:1 1604:1 1757:1 1768:1 1899:1 1907:1 1993:1 2049:1 2199:1 2238:1 2297:1 2350:1 2373:1 2374:1 2444:1 2466:1 2481:1 2681:2 2897:1 2936:1 2961:1 3151:1 3410:1 
0.0055479751288586626 28:1 59:1 127:1 161:1 266:1 412:1 432:1 613:1 653:1 750:1 761:1 762:1 811:1 849:1 872:1 878:1 956:1 1038:1 1107:1 1151:1 1164:1 1219:1 1348:2 1377:1 1456:1 1468:1 1570:1 1615:1 1646:2 1681:1 1690:1 1775:1 1970:1 1977:1 2149:1 2188:1 2234:1 2298:1 2374:1 2466:1 2573:1 2581:1 2778:1 2815:1 2933:1 3168:1 3216:1 3275:1 3286:1 
0.015002224156083238 117:1 192:1 244:1 409:1 1014:1 1056:1 1237:1 1329:1 1358:1 1445:1 1574:1 1579:1 1638:1 1678:1 1757:2 1855:1 1968:1 2302:1 2374:1 2810:1 2934:1 2947:1 3012:1 3061:1 3212:1 
0.00606743176057329 40:1 59:1 158:1 161:1 244:1 291:1 379:1 412:1 567:1 653:1 847:1 1151:1 1390:1 1545:1 1579:1 1830:1 2044:1 2234:1 2295:1 2374:1 2388:1 2442:1 2466:1 2810:1 3134:1 
0.011507457458492883 59:1 161:1 178:1 202:1 412:1 653:1 661:1 789:1 1069:1 1151:1 1219:1 1311:1 1355:1 1392:1 1452:1 1599:1 2044:1 2199:1 2297:1 2334:1 2375:1 2466:1 2530:1 2913:1 2930:1 2995:1 3150:1 3212:1 
0.0058412318608332394 36:1 59:1 86:1 92:1 141:1 161:1 166:1 173:1 412:1 417:1 460:1 507:1 603:1 653:1 658:1 683:1 770:1 780:1 849:1 983:1 1038:1 1151:1 1184:1 1214:1 1311:1 1342:1 1355:1 1432:1 1508:1 1663:1 1736:1 1741:1 1757:1 1758:1 1767:1 1901:1 1902:1 1914:1 1985:1 2071:1 2083:1 2172:1 2202:1 2203:1 2224:1 2311:1 2466:1 2519:2 2524:1 2600:1 2683:1 2692:1 3255:1 3288:1 3317:1 
0.0060373309766129238 47:1 59:1 161:1 175:1 412:1 620:1 652:1 653:1 998:1 1151:2 1264:1 1367:1 1486:1 2161:1 2466:1 2616:2 2811:1 2869:1 3118:1 3226:1 
0.0065768989014475801 28:1 59:1 115:1 158:1 161:1 258:1 412:1 432:1 593:1 653:1 938:1 958:1 1151:1 1321:1 1573:1 1647:1 1671:1 1747:1 1967:1 2167:1 2179:1 2223:1 2324:1 2466:1 2765:1 
0.015112545911950071 28:1 59:1 115:1 158:1 161:1 258:1 412:1 432:1 593:1 653:1 938:1 958:1 1151:1 1321:1 1573:1 1647:1 1671:1 1747:1 1967:1 2167:1 2179:1 2223:1 2324:1 2466:1 2616:1 2765:1 
0.035727365292324037 59:1 161:1 169:1 412:1 432:1 653:1 913:1 996:1 1151:1 1833:1 2418:1 2466:1 2551:1 3062:1 3116:1 
0.0067828636369611497 59:1 102:1 161:1 412:1 622:1 653:1 811:1 847:1 872:1 1037:1 1088:1 1130:1 1151:1 1219:1 1358:1 1452:1 1618:1 1639:1 1670:1 1757:1 1946:1 2124:1 2205:1 2297:1 2341:1 2466:1 2810:1 2934:1 3150:1 3212:1 3219:1 
0.039954163686469674 59:1 161:1 169:1 412:1 432:1 653:1 913:1 996:1 1151:1 1833:1 2418:1 2466:1 2551:1 2616:1 3062:1 3116:1 
0.082201885702631441 17:1 97:1 244:1 305:1 430:1 885:1 1355:1 1384:1 1432:1 1579:1 2041:1 2374:1 2811:1 2866:1 2913:1 3096:1 3352:1 
0.25 86:1 139:1 377:1 849:1 1038:1 1432:1 2044:1 3255:1 
0.25 59:1 161:1 244:1 412:1 512:1 653:1 1151:1 2466:1 
0.0027496350753667921 59:1 76:1 161:1 244:1 412:1 459:1 653:1 847:1 998:1 1128:1 1151:1 1264:1 1313:1 1757:1 2037:1 2188:1 2466:1 2616:1 2676:1 2731:1 2810:1 3133:1 3226:1 
0.0091226575649769499 36:1 59:1 114:1 117:1 161:1 244:1 412:1 459:1 603:1 653:1 657:1 811:1 876:1 1014:1 1056:1 1151:1 1237:1 1316:1 1329:1 1348:1 1579:1 1646:1 1663:1 1757:2 1968:1 1985:1 2083:1 2188:1 2206:1 2311:1 2374:1 2466:1 2480:1 2481:1 2821:1 2838:1 2975:1 2994:1 3155:1 3229:1 3277:1 3317:1 
0.055364562311554427 59:1 105:1 161:1 412:1 653:1 656:1 703:1 750:2 872:1 929:1 1100:1 1151:1 1371:1 1615:1 1623:1 1651:1 1901:1 2466:1 2481:1 2529:1 3216:1 
0.0060605859214338045 13:1 58:1 103:1 191:1 270:1 372:1 404:1 411:1 445:1 467:1 536:1 714:1 788:1 820:1 932:1 988:1 1084:2 1146:1 1185:1 1355:1 1378:1 1430:1 1435:1 1538:1 1574:1 1637:1 1979:1 2019:1 2030:1 2247:1 2304:1 2443:1 2465:1 2519:1 2781:1 2795:1 2810:1 2881:1 2917:1 3303:1 
0.0010399339972044126 217:1 222:1 244:1 409:1 512:1 664:1 846:1 1056:1 1237:1 1329:1 1348:1 1355:1 1576:1 1599:1 1646:1 1824:1 1896:1 1902:1 1968:1 2202:1 2206:1 2795:1 2806:4 2933:1 2975:1 3121:1 3411:1 
0.013068151354121179 70:1 105:1 117:1 135:1 195:1 509:1 656:1 1014:1 1049:1 1121:1 1127:1 1132:1 1219:1 1623:1 1651:1 1678:1 1757:1 1979:1 2293:1 2302:1 2340:1 2481:1 2914:1 2921:1 3084:1 3140:1 3212:1 
0.0065300680599714635 2:2 3:1 59:1 69:1 86:1 114:1 127:1 136:1 161:1 198:1 244:1 332:1 350:1 381:1 409:1 412:1 439:1 653:1 658:1 673:1 687:1 699:1 811:1 832:1 1151:1 1284:1 1348:1 1432:1 1525:1 1535:1 1579:1 1646:1 1874:1 1883:1 1918:1 1965:1 1992:1 2374:1 2449:1 2466:1 2642:1 2701:1 2881:1 3030:1 3219:1 3255:1 
0.027615444471318709 36:1 59:1 161:1 244:1 412:1 652:1 653:1 849:1 1151:1 1579:1 1613:1 1678:1 2302:1 2374:1 2403:1 2466:1 2481:1 2790:1 3212:1 
0.0049676181649498151 59:1 135:1 157:1 161:1 162:1 412:1 462:1 521:1 653:1 1135:1 1151:1 1355:1 1979:1 2234:1 2244:1 2414:1 2449:1 2450:1 2466:1 2474:1 2977:1 2991:1 
0.011448411508244855 59:1 161:1 165:1 209:1 274:1 410:1 412:1 653:1 723:1 780:1 995:1 1033:1 1135:1 1151:1 1219:1 1604:1 1901:1 2297:1 2466:1 2511:1 2631:1 2947:1 3012:1 3080:1 3150:1 
0.0045817625003849614 59:1 105:1 161:1 244:1 412:1 653:1 811:1 825:1 832:1 849:1 874:1 1084:1 1151:1 1214:1 1367:1 1385:1 1486:1 1579:1 1653:1 1679:1 1930:1 1932:1 2047:1 2155:1 2161:1 2217:1 2222:1 2304:1 2374:1 2466:1 2563:1 2642:1 2701:1 2901:1 3219:1 3325:1 
0.011619869326504986 39:1 59:1 90:1 161:1 230:1 325:1 412:1 530:1 653:1 750:1 872:1 1151:1 1341:1 1348:1 1508:1 1615:1 1631:1 1646:1 1731:1 2261:1 2274:1 2466:1 2621:1 2795:1 2815:1 2913:1 2933:1 3216:1 3250:1 3256:1 3326:1 
0.036282178764546917 59:1 135:1 157:1 161:1 412:1 653:1 757:1 1151:1 1355:1 1432:1 1638:1 1979:1 2234:1 2414:1 2449:1 2450:1 2466:1 2977:1 2991:1 
0.047701785905629429 86:1 139:1 217:1 284:1 377:1 409:1 717:1 975:1 1219:1 1432:1 1576:1 1896:1 2044:1 2244:1 2297:1 3121:1 3150:1 3255:1 
0.00057937541280730573 59:1 143:1 161:1 217:1 244:2 409:1 412:1 653:1 762:1 1084:1 1151:1 1185:1 1355:1 1378:1 1576:1 1579:2 1690:1 1827:1 1896:1 1979:1 2077:1 2194:1 2199:1 2253:1 2259:1 2304:1 2374:2 2466:1 2538:1 2587:1 2601:1 2917:1 2974:1 3121:1 3326:1 3437:1 
0.0038964463629206293 59:1 161:1 412:1 653:1 762:1 847:1 934:1 1151:1 1190:1 1260:1 1438:1 1690:1 2342:1 2466:1 2721:1 2810:1 2906:1 3441:1 
0.010470589377636867 11:1 49:1 59:1 161:1 175:1 244:1 412:1 497:1 642:1 653:1 789:1 1151:1 1215:1 2056:1 2111:1 2236:1 2342:1 2466:1 2616:1 2811:1 2869:1 2966:1 3026:1 3150:1 3218:1 
0.005390577313415492 59:1 161:1 412:1 653:1 794:1 816:1 847:1 849:1 1111:1 1151:1 1344:1 1348:1 1367:1 1385:1 1486:1 1538:1 1588:1 1613:1 1646:1 1671:1 2019:1 2047:1 2161:1 2167:1 2223:1 2238:1 2304:1 2350:1 2373:1 2466:1 2499:1 2810:1 2815:1 2901:1 2933:1 3091:1 
0.24287913674896572 59:1 117:1 161:1 412:1 653:1 1014:1 1151:1 1358:1 1757:2 2466:1 2934:1 
0.016184692170758297 59:1 117:1 134:1 143:1 161:1 244:1 412:1 600:1 653:1 811:2 832:1 1014:1 1151:1 1179:1 1355:1 1390:1 1561:1 1579:1 1771:1 1963:1 2077:1 2199:1 2277:1 2374:1 2466:1 2530:1 2616:1 2642:1 2701:1 2855:1 3219:1 3437:1 3449:1 
0.0094519757363071381 36:1 59:1 104:1 161:1 190:1 244:1 412:1 531:1 595:1 652:1 653:1 661:1 1056:1 1084:1 1151:1 1237:1 1329:1 1348:1 1538:1 1579:1 1641:1 1646:1 1968:1 2019:1 2044:1 2199:1 2206:1 2213:1 2274:1 2304:1 2374:1 2466:1 2691:1 2779:1 2795:1 2815:1 2933:1 2975:1 2979:1 3257:1 
0.0071087341370679579 59:1 81:1 117:1 161:1 244:1 412:1 460:1 653:1 811:1 832:1 847:1 1014:1 1151:1 1179:1 1264:1 1342:1 1367:1 1390:1 1561:1 1579:1 1678:1 1757:1 2049:1 2061:1 2213:1 2302:1 2374:1 2466:1 2530:1 2642:1 2664:1 2701:1 2810:1 2917:1 2935:1 3088:1 3212:1 3219:1 3278:1 3449:1 
0.00027803905179054185 36:1 59:1 104:1 161:1 190:1 244:1 412:1 531:1 595:1 652:1 653:1 661:1 1056:1 1084:1 1151:1 1237:1 1329:1 1348:1 1538:1 1579:1 1641:1 1646:1 1968:1 2019:1 2044:1 2199:1 2206:1 2213:1 2274:1 2304:1 2374:1 2466:1 2616:1 2691:1 2779:1 2795:1 2815:1 2933:1 2975:1 2979:1 3257:1 
0.00079361054514000056 59:1 81:1 117:1 161:1 244:1 412:1 460:1 653:1 811:1 832:1 847:1 1014:1 1151:1 1179:1 1264:1 1342:1 1367:1 1390:1 1561:1 1579:1 1678:1 1757:1 2049:1 2061:1 2213:1 2302:1 2374:1 2466:1 2530:1 2616:1 2642:1 2664:1 2701:1 2810:1 2917:1 2935:1 3088:1 3212:1 3219:1 3278:1 3449:1 
0.00023540223304145309 59:1 117:1 161:1 177:1 200:1 360:1 412:1 455:1 653:1 687:1 699:1 706:1 797:1 807:1 811:1 847:1 896:1 924:1 936:1 1014:1 1036:1 1135:1 1151:1 1231:1 1358:1 1370:1 1517:1 1575:1 1602:1 1670:1 1757:2 1861:1 1894:1 1918:1 1942:1 1946:1 2133:1 2205:2 2409:1 2466:1 2561:1 2579:1 2614:1 2642:1 2736:1 2754:1 2802:1 2810:2 2821:1 2890:1 2934:1 2996:1 3161:1 3176:1 3220:1 3403:1 
0.01191849054552341 36:1 59:1 81:1 114:1 117:1 139:2 161:1 163:1 223:1 244:1 267:1 377:1 412:1 432:1 653:1 657:1 789:1 1014:1 1049:1 1151:1 1329:1 1342:1 1579:1 1668:1 1757:1 2044:3 2151:1 2172:1 2304:1 2374:1 2466:1 2494:1 2732:1 2813:1 2829:1 2891:1 3062:1 3204:1 3258:1 3328:1 
0.0072170353118508153 38:1 59:1 161:1 191:1 412:1 445:1 475:1 526:1 559:1 653:1 1151:1 1185:1 1219:1 1288:1 1355:1 1378:1 1574:1 1979:1 2297:1 2466:1 2795:1 2917:1 3150:1 
0.0020711073780151899 53:1 178:1 244:3 284:1 512:2 661:1 702:1 717:1 745:1 755:1 847:1 924:1 975:1 1599:1 1666:2 2111:2 2141:2 2244:1 2492:1 2499:1 2616:1 2662:1 2726:1 2810:1 2811:1 2874:1 2966:2 3273:1 
0.0029401502897956002 17:1 59:1 161:1 244:1 265:1 284:1 305:1 412:1 459:1 461:1 653:1 717:1 849:1 975:1 1095:1 1151:1 1579:1 1613:1 1668:1 1840:1 2172:2 2195:1 2224:1 2244:1 2246:1 2287:1 2374:1 2389:1 2423:1 2460:1 2466:1 2855:1 3008:1 3179:1 
0.013575598306914044 58:1 114:1 117:1 475:1 657:1 685:1 698:1 759:1 825:1 888:1 989:1 1014:1 1049:1 1179:2 1183:1 1329:1 1646:1 1757:1 2012:1 2199:1 2226:1 2344:1 2481:1 2564:1 2694:1 2821:1 2901:1 2917:2 2994:1 3275:1 3372:1 
0.00098623820403719227 16:1 59:1 161:1 244:1 265:1 295:1 412:1 512:1 653:1 766:1 862:1 872:1 1038:1 1151:1 1367:1 1615:1 1727:1 2466:1 2616:1 2935:1 3011:1 3216:1 
0.020575995364879751 2:1 11:1 59:1 161:1 217:1 244:1 409:1 412:1 653:1 1056:1 1151:1 1237:1 1329:1 1576:1 1896:1 1968:1 2206:1 2466:1 2975:1 3121:1 3386:1 
0.0033556624818843668 18:1 114:1 321:1 459:1 657:1 706:1 750:1 789:1 807:1 811:2 849:1 872:2 1036:1 1342:1 1423:1 1602:1 1613:1 1615:1 1637:1 1670:1 1836:1 1914:1 1928:1 1946:1 2015:1 2044:1 2177:1 2195:1 2203:1 2205:1 2271:1 2292:1 2311:1 2375:1 2405:1 2411:1 2481:1 2585:1 2717:1 2754:1 2821:1 2933:1 2994:1 3064:1 3216:1 3218:1 3316:1 
0.025793346357448305 162:1 244:1 849:1 975:1 998:1 1038:1 1212:1 1358:1 1579:1 1671:1 1757:2 2167:1 2188:1 2223:1 2263:1 2374:1 2472:1 2646:1 2934:1 3118:1 3260:1 
0.00049343474004931735 34:1 36:1 59:1 75:1 133:1 143:1 161:1 192:1 244:1 412:2 423:1 432:1 477:1 512:1 533:1 653:1 661:1 681:1 682:1 761:1 780:1 907:1 983:1 1072:1 1151:1 1153:1 1159:1 1258:1 1290:1 1311:1 1355:1 1392:1 1565:1 1588:1 1681:1 1874:1 1901:1 1942:1 2077:1 2111:1 2199:2 2294:1 2466:1 2524:1 2810:1 2863:1 2936:1 2966:1 3100:1 3327:1 3388:1 3437:1 
0.25 59:1 161:1 412:1 653:1 1056:1 1151:1 1237:1 1329:1 1968:1 2206:1 2466:1 2975:1 
0.018499615727707697 59:1 161:1 244:1 412:1 512:1 653:1 1151:1 2111:1 2466:1 2966:1 
0.0042332659857991254 59:1 161:1 412:1 570:1 653:1 693:1 846:1 880:1 1053:1 1110:1 1151:1 1175:1 1177:3 1212:1 1219:1 1342:2 1348:1 1423:1 1646:1 1775:1 2188:1 2253:1 2297:1 2466:1 2538:1 2616:1 2717:1 2795:1 2843:1 2933:2 3075:1 3084:1 3150:1 3272:1 3326:1 
0.011073316656171495 59:1 161:1 244:1 412:1 653:1 777:1 811:1 849:1 872:1 1151:1 1355:1 1437:1 1579:1 1638:1 2374:1 2466:1 2480:1 2838:1 2901:1 3155:1 3218:1 3279:1 
0.02226685102179278 59:1 139:1 161:1 412:1 525:1 539:1 653:1 785:1 834:1 872:1 1151:1 1623:1 1984:1 2044:1 2199:1 2466:1 2519:1 2655:1 2830:1 2995:1 3065:1 3219:1 3258:1 3437:1 
0.0027936868777126826 34:1 59:1 97:1 117:1 161:1 185:1 412:1 421:1 480:1 544:1 653:1 661:1 681:1 810:1 842:1 845:1 1014:1 1151:1 1346:1 1366:1 1376:1 1405:1 1432:1 1553:1 1623:1 1679:1 1757:1 1794:1 1858:1 1969:1 2234:1 2304:1 2344:1 2437:2 2466:1 2497:1 2637:1 2734:1 2750:1 2786:1 2977:1 3017:1 3047:1 3093:1 3094:1 3109:1 3118:1 
0.0057464212795780897 117:1 134:1 244:3 704:1 705:1 767:1 777:1 802:1 811:1 872:1 1014:1 1358:1 1452:1 1579:3 1588:1 1757:1 1770:1 1833:1 1931:1 1963:1 2294:1 2374:3 2418:1 2694:2 2934:1 3100:1 3116:1 3212:1 3219:1 3327:1 
0.0033156174434431978 59:1 86:1 139:1 161:1 168:1 192:1 377:1 412:1 595:1 653:1 660:1 769:1 770:1 811:1 872:1 1151:1 1179:2 1219:1 1432:1 1574:1 1623:1 1748:1 1767:1 2044:2 2213:1 2297:1 2466:1 2493:1 2547:1 2810:1 2917:2 3150:1 3219:1 3255:1 
0.017348938703678662 89:1 595:1 849:1 1038:1 1095:1 1100:1 1219:1 1358:1 1371:1 1489:1 1735:1 1757:1 1901:1 1914:1 2203:1 2244:1 2253:1 2287:1 2297:1 2529:1 2538:1 2855:1 2934:1 3008:1 3150:1 3326:1 
0.0020481518098917173 26:1 117:1 162:2 244:1 409:1 462:1 521:1 648:1 651:1 811:1 874:1 1014:1 1135:2 1348:1 1579:1 1588:1 1646:1 1771:1 1813:2 1827:2 1932:1 2244:1 2258:2 2294:1 2354:2 2374:1 2472:1 2474:1 2593:2 2891:1 3100:1 3327:1 3385:1 3404:1 
0.022138909290310902 59:1 161:1 412:1 653:1 1151:1 1260:1 2342:1 2466:1 3441:1 
0.012328339422368825 59:1 161:1 192:1 244:1 412:1 653:1 1151:1 1219:1 1574:1 1579:1 2297:1 2338:1 2374:1 2466:1 2810:1 3150:1 
0.02560044029567108 59:1 156:1 161:1 412:1 586:1 653:1 1134:1 1151:1 1179:2 1219:1 1593:1 2044:1 2294:1 2361:1 2397:1 2466:1 2723:1 2917:2 3100:1 
0.25 59:1 161:1 412:1 653:1 1151:1 1260:1 2342:1 2466:1 3441:1 
0.0034999774896710151 59:2 127:1 128:1 149:1 161:1 244:1 412:1 467:1 543:1 544:1 653:1 811:1 847:1 1056:1 1151:1 1237:1 1329:1 1366:1 1376:1 1579:1 1697:1 1739:1 1857:1 1879:1 1905:1 1963:1 1968:1 2202:1 2206:1 2374:1 2450:1 2466:1 2735:1 2815:1 2867:1 2935:1 2975:1 3108:1 3324:1 3355:1 
0.00065851602430904539 39:1 59:1 134:1 161:1 244:2 412:1 459:1 512:1 530:1 578:1 653:1 777:1 780:1 820:1 849:1 872:1 983:1 998:1 1101:1 1151:1 1277:1 1311:1 1579:1 1623:1 1773:1 1813:1 1827:1 1834:1 1861:1 1908:1 1963:1 2195:1 2258:1 2296:1 2299:1 2330:1 2354:1 2374:1 2442:1 2466:1 2519:1 2524:1 2585:2 2593:1 2729:1 2992:1 3118:1 3138:1 3168:1 3173:1 3179:1 3218:1 3219:1 
0.0065177294562876898 36:1 90:1 92:2 106:1 244:1 248:1 267:1 333:1 512:1 655:1 750:1 811:1 872:1 874:1 1084:1 1190:1 1355:1 1432:1 1508:2 1579:1 1615:1 1659:1 1736:1 1828:1 1932:1 2167:1 2185:1 2225:1 2275:1 2374:1 2481:1 2580:1 2810:1 2865:1 3216:1 3410:1 
0.00080751091173556812 39:1 59:1 134:1 161:1 244:1 412:1 459:1 512:1 530:1 578:1 653:1 777:1 780:1 820:1 849:1 872:1 983:1 998:1 1101:1 1151:1 1311:1 1562:1 1623:1 1773:1 1813:1 1827:1 1834:1 1908:1 1963:1 2195:1 2258:1 2296:1 2299:1 2330:1 2354:1 2374:1 2442:1 2466:1 2519:1 2524:1 2585:2 2593:1 2616:1 2992:1 3118:1 3138:1 3179:1 3218:1 3219:1 
0.00067860110114261829 34:1 59:1 79:1 115:1 122:1 161:1 244:3 248:1 258:1 412:1 475:1 504:1 653:1 777:1 811:1 812:1 872:1 1056:2 1151:1 1219:1 1237:2 1329:2 1385:1 1504:1 1579:3 1747:1 1815:1 2047:1 2168:1 2297:1 2374:3 2441:1 2446:1 2466:1 2526:1 2821:1 2901:1 2992:1 3034:1 3150:1 3218:1 3250:1 3321:1 3410:1 
0.0026338994286266371 48:1 59:1 85:1 97:1 130:1 158:1 161:1 226:1 412:1 505:1 530:1 632:1 653:1 789:1 913:1 917:1 969:1 1151:1 1216:2 1293:1 1417:1 1432:1 1696:1 1768:1 1823:1 1894:1 2044:1 2085:1 2188:1 2252:1 2260:2 2446:1 2466:1 2523:1 2533:1 2605:2 3108:1 3244:1 
0.015811042994966613 59:1 161:1 195:1 200:1 244:1 412:1 653:1 662:1 811:1 1084:1 1099:1 1151:1 1405:1 1452:1 1575:1 1579:1 1813:1 1818:1 2374:1 2466:1 2481:1 2519:1 2901:1 2995:1 3212:1 
0.25 59:1 161:1 412:1 653:1 1151:1 2199:1 2226:1 2466:1 2780:1 
0.020725212220895003 43:1 582:1 700:2 709:1 862:1 1092:1 1095:1 1432:1 1671:1 1798:1 2110:1 2167:1 2219:1 2223:1 2287:1 2403:1 2485:1 2855:1 2926:1 3008:1 3011:1 
0.010922284583777286 34:1 59:1 161:1 171:1 201:1 351:1 412:1 475:1 653:1 811:1 834:1 849:1 872:1 907:1 1018:1 1038:1 1092:1 1151:1 1164:1 1901:1 2110:1 2199:1 2219:1 2295:1 2304:1 2466:1 2585:1 2655:1 2916:1 3122:1 3219:1 3328:1 3437:1 
0.0074723850903951963 32:1 33:1 81:1 114:1 131:1 223:1 229:1 466:1 470:1 611:1 657:1 1215:1 1219:1 1342:1 1405:1 1570:1 1676:1 1901:1 1914:2 2203:2 2236:1 2274:1 2276:1 2298:1 2342:1 2377:1 2437:1 2481:1 2583:1 2675:1 2795:1 3093:1 3168:1 3204:1 3250:1 3487:1 
0.0004200262170077773 59:1 83:1 105:2 114:1 139:1 161:1 187:1 244:1 412:1 610:1 653:1 656:1 657:1 706:1 773:1 797:1 910:1 1056:1 1151:1 1212:1 1237:1 1261:1 1277:1 1329:1 1355:2 1367:1 1579:1 1602:1 1623:1 1646:1 1651:1 1757:1 1792:1 1829:1 2044:1 2188:1 2199:1 2226:1 2276:1 2360:1 2374:1 2446:1 2466:1 2481:2 2729:1 2754:1 2780:1 2821:1 2994:1 3258:1 3452:1 
0.0038515803100641175 59:1 117:1 161:1 172:1 178:1 244:2 305:1 307:1 379:1 412:1 512:1 653:1 661:1 750:2 755:1 767:1 827:1 1014:1 1151:1 1216:1 1275:1 1599:1 1607:1 1771:1 1924:1 1994:1 2094:1 2111:1 2259:1 2348:1 2405:1 2466:1 2492:1 2521:1 2568:1 2592:1 2596:1 2600:1 2966:1 3024:1 3129:1 3392:1 
0.0098112784642923404 59:1 161:1 217:1 244:1 409:1 412:1 512:1 556:1 653:1 698:1 849:1 1151:1 1576:1 1613:1 1896:1 2111:1 2466:1 2694:1 2823:1 2966:1 3020:1 3068:1 3121:1 
0.058222185204197835 59:1 136:1 161:1 244:1 412:1 653:1 1084:1 1151:1 1212:1 1579:1 1757:1 1874:1 1992:1 2188:1 2374:1 2466:1 3258:1 
0.037235825417409441 28:1 175:1 195:1 432:1 543:1 662:1 793:1 811:1 849:1 976:1 1038:1 1099:1 1769:1 1905:1 2188:1 2199:1 2295:1 2324:1 2481:1 2616:1 2637:1 2778:1 2811:1 2869:1 3118:1 3122:1 
0.056531008912540162 34:1 117:1 478:1 884:1 1014:1 1056:1 1179:1 1219:1 1237:1 1623:1 1671:1 1757:1 2167:1 2223:1 2293:1 2917:1 2921:1 2950:1 3084:1 3347:1 
0.045709092166486831 38:1 117:1 244:2 307:1 475:1 512:1 526:1 559:1 767:1 998:1 1014:1 1288:1 1579:1 1607:1 1757:1 2094:1 2111:1 2374:1 2405:1 2568:1 2966:1 3118:1 
0.0056389058747311933 28:1 59:1 123:1 127:1 161:1 191:1 209:1 217:1 244:1 290:1 409:1 412:1 432:1 460:1 475:1 492:1 512:1 590:1 653:1 685:1 811:2 849:1 933:1 936:1 1038:1 1151:1 1215:1 1366:1 1450:1 1576:1 1697:1 1742:1 1830:1 1857:1 1896:1 1916:1 1994:1 2044:1 2111:1 2124:1 2210:1 2236:1 2260:1 2295:1 2342:1 2466:1 2605:1 2735:1 2741:1 2801:1 2831:1 2858:1 2867:1 2966:1 3008:1 3079:1 3108:1 3121:1 3134:1 3326:1 3394:1 
0.25 59:1 161:1 412:1 653:1 1151:1 1562:1 2466:1 
0.0073083824310709545 59:1 117:1 161:1 178:1 244:1 412:1 459:2 461:1 512:1 653:1 661:1 755:1 820:1 1014:1 1117:1 1151:1 1367:1 1486:1 1599:1 1757:2 1814:1 1859:1 2111:1 2161:1 2172:1 2188:1 2193:1 2224:1 2466:1 2492:1 2519:1 2966:1 3118:1 3198:1 3219:1 
0.0039642814470461779 59:1 110:1 161:1 217:1 244:2 409:1 412:1 459:1 460:1 512:1 653:1 789:1 809:1 848:1 849:1 1088:1 1151:1 1193:1 1215:1 1348:1 1576:1 1579:1 1613:1 1623:1 1646:1 1693:1 1757:1 1825:1 1896:1 2044:1 2047:1 2111:1 2124:1 2188:1 2213:1 2231:1 2236:1 2281:1 2342:1 2374:1 2466:1 2499:1 2519:1 2762:1 2770:1 2815:1 2835:1 2898:1 2919:1 2933:1 2966:1 2995:1 3109:1 3121:1 
0.02189934904854628 36:1 40:1 59:1 109:1 142:1 161:1 412:1 556:1 603:1 652:1 653:1 807:1 849:1 1151:1 1395:1 1610:1 1613:1 1663:1 1686:1 1985:1 2074:1 2083:1 2289:1 2311:1 2409:1 2466:1 2481:1 2754:1 3317:1 3361:1 
0.014713833438940355 132:1 162:1 163:1 217:1 393:1 409:1 648:1 750:1 849:1 975:1 1280:1 1348:1 1570:1 1576:1 1647:1 1671:1 1896:1 1924:1 1965:1 2167:1 2223:1 2263:1 2472:1 2481:1 2646:1 2703:1 3121:1 3230:1 3260:1 
0.076794525450652407 59:1 161:1 246:1 412:1 653:1 702:1 746:1 780:1 1151:1 1179:1 1516:1 1746:1 1901:1 2466:1 2917:1 3273:1 3393:1 
0.0027743193502417786 59:1 86:1 102:1 139:1 161:1 217:1 377:1 409:1 412:1 653:1 698:1 820:1 829:1 872:1 1071:1 1130:1 1151:1 1219:1 1348:1 1374:1 1432:1 1576:1 1618:1 1646:1 1896:1 1951:1 2044:1 2199:1 2297:1 2351:1 2372:1 2466:1 2519:1 2611:1 2694:1 2736:1 2779:1 2933:1 3121:1 3150:1 3219:1 3255:1 
0.0036888511659591752 59:1 139:1 161:1 244:1 412:1 512:1 595:1 653:1 1151:1 1668:1 1914:1 2044:1 2172:1 2203:1 2253:1 2466:1 2538:1 3258:1 3326:1 
0.00830834321961549 83:1 117:1 134:1 139:1 217:1 244:2 377:1 409:1 512:1 777:1 869:1 1014:1 1161:1 1185:1 1219:1 1385:1 1388:1 1576:1 1579:1 1739:1 1757:1 1896:1 1963:1 2044:2 2071:1 2111:1 2234:1 2297:1 2374:1 2581:1 2966:1 3121:1 3150:1 3162:1 3255:1 3286:1 
0.10080336593529182 59:1 139:1 161:1 412:1 653:1 1069:1 1084:1 1151:1 1179:1 1452:1 2044:1 2466:1 2917:1 3212:1 3258:1 
0.24559745252660997 59:1 86:1 139:1 161:1 377:1 412:1 653:1 1151:1 1432:1 2044:1 2466:1 3255:1 
0.06771744084257518 70:1 127:1 394:1 658:1 777:1 1095:1 1121:1 1127:1 1678:1 2102:1 2236:1 2287:1 2302:1 2349:1 2855:1 3008:1 3212:1 
0.063329730275003646 86:1 139:1 175:1 244:2 377:1 512:1 1432:1 1579:1 2044:1 2111:1 2374:1 2616:1 2811:1 2869:1 2966:1 3255:1 
0.0061703730456747043 59:1 90:1 108:1 125:1 161:1 192:1 244:1 412:1 653:1 655:1 657:1 661:1 777:1 811:1 832:1 1084:1 1111:1 1151:1 1188:1 1344:1 1367:1 1406:1 1486:1 1579:1 1588:1 1682:1 1848:1 2161:1 2236:1 2343:1 2349:1 2358:1 2374:1 2439:1 2466:1 2642:1 2667:1 2701:1 2786:1 2810:1 2891:1 3091:1 3219:1 
0.029714188019869105 59:1 115:1 161:1 258:1 412:1 560:1 586:1 653:1 1151:1 1179:1 1190:1 1298:1 1432:1 1538:1 1747:1 2019:1 2044:1 2304:1 2466:1 2721:1 2917:1 
0.011106445413229185 59:1 161:1 195:1 244:1 412:1 512:1 653:1 662:1 1084:1 1099:1 1151:1 1179:1 1452:1 1639:1 2111:1 2304:1 2466:1 2481:1 2966:1 3212:1 3288:1 3328:1 
0.014062400862921856 86:1 117:1 127:1 139:1 178:1 200:1 244:1 377:1 509:1 512:1 658:1 661:1 755:1 1014:1 1179:1 1432:1 1542:1 1599:1 1757:1 2044:1 2111:1 2249:1 2292:1 2405:1 2481:1 2492:1 2585:1 2890:1 2917:1 2966:1 3064:1 3255:1 
0.25 1219:1 1386:1 1794:1 2064:1 2297:1 3150:1 3179:1 
0.0028321659920217436 59:1 86:1 117:1 139:1 144:1 159:1 161:1 175:1 217:1 230:1 244:1 377:1 409:1 412:1 653:1 665:1 666:1 698:1 767:1 769:1 770:1 811:1 832:1 1014:1 1069:1 1117:1 1151:1 1260:1 1367:1 1432:1 1437:1 1452:1 1486:1 1576:1 1748:1 1757:1 1767:1 1896:1 2044:1 2081:1 2161:1 2332:1 2342:1 2449:1 2466:1 2493:1 2616:1 2642:1 2694:1 2701:1 2897:1 3121:1 3198:1 3213:1 3219:1 3255:1 3265:1 3441:1 3474:1 
0.0039343375447866051 40:1 59:1 131:1 161:1 217:1 230:1 244:1 409:1 412:1 459:2 556:1 652:1 653:1 753:1 811:1 874:1 1069:1 1132:1 1151:1 1219:1 1355:1 1452:1 1576:1 1586:1 1771:1 1896:1 1901:1 1932:1 2185:1 2188:1 2297:1 2466:1 2481:1 2616:1 3121:1 3150:1 3212:1 3265:1 3275:1 
0.037868619007771137 39:1 195:2 317:2 530:1 952:1 1396:1 1415:1 1731:1 2088:2 2531:1 2615:1 2810:1 2995:1 
0.0058847439976370047 59:1 130:1 134:1 161:1 178:1 195:1 410:1 412:1 464:1 468:1 653:1 661:1 662:1 874:1 893:1 972:1 1099:1 1132:1 1151:1 1170:1 1588:1 1599:1 1653:1 1679:1 1894:1 1963:1 2179:1 2253:1 2294:1 2304:1 2375:1 2466:1 2481:1 2502:1 2538:1 3100:1 3326:1 
0.0086965712825004156 47:1 59:1 161:1 175:1 244:1 412:1 512:1 620:1 652:1 653:1 811:1 834:1 872:1 1151:2 1164:1 1187:1 1396:1 1914:1 2036:1 2203:1 2466:1 2616:2 2657:1 2721:1 2811:1 2869:1 3219:1 3286:1 3463:1 
0.15240432411291466 59:1 161:1 412:1 653:1 1100:1 1151:1 1358:1 1371:1 1757:1 1901:1 2253:1 2466:1 2529:1 2538:1 2934:1 3326:1 
0.0045130958972404607 59:1 110:1 156:1 161:1 178:1 195:1 244:2 381:1 412:1 461:1 464:1 512:1 653:1 661:1 703:1 750:1 755:1 777:1 794:1 866:1 929:1 1134:1 1151:1 1341:1 1508:1 1588:1 1599:1 1631:1 1671:1 1693:1 1746:1 2111:1 2167:1 2172:1 2223:1 2224:1 2238:1 2294:1 2349:1 2350:1 2373:1 2396:1 2436:1 2466:1 2492:1 2770:1 2966:1 3070:1 3077:1 3100:1 
0.021003995879717866 86:1 127:1 139:1 178:1 377:1 658:1 661:1 755:1 869:1 1084:1 1219:1 1432:1 1599:1 2044:1 2236:1 2297:1 2343:1 2492:1 2581:1 3150:1 3162:1 3255:1 
0.011220098140402875 28:1 59:1 161:1 178:1 207:1 210:1 217:1 409:1 410:1 412:1 430:1 432:1 543:1 595:1 653:1 811:1 885:1 976:1 1136:1 1151:1 1432:1 1576:1 1896:1 1905:1 2044:1 2199:1 2213:1 2295:1 2324:1 2334:1 2421:1 2466:2 2579:1 2811:1 2871:1 2996:1 3016:1 3121:1 3122:1 3153:1 3352:1 
0.035780945670149555 59:1 161:1 244:1 412:1 430:1 512:1 653:1 811:1 885:1 1151:1 1432:1 2351:1 2466:1 2837:1 3141:1 3352:1 
0.0072787047350804284 59:1 136:1 161:1 341:1 412:1 653:1 674:1 811:1 832:1 865:1 874:2 1151:1 1432:1 1536:1 1623:1 1874:1 1894:1 1914:1 1932:2 1984:1 1999:1 2017:1 2203:1 2208:1 2295:1 2466:1 2642:1 2701:1 2740:1 3121:1 3219:1 3271:1 
0.0075004110276510111 59:1 78:1 130:1 131:1 139:1 161:1 409:1 410:1 412:1 653:1 811:2 832:1 846:1 847:1 866:1 876:1 1132:1 1151:1 1312:1 1381:1 1570:1 1612:1 1646:1 1827:1 1894:1 1901:1 1932:1 2005:1 2044:1 2103:1 2179:1 2194:1 2259:1 2304:1 2436:1 2466:1 2577:1 2587:1 2601:1 2642:1 2701:1 2795:1 2810:1 2974:1 3070:1 3077:1 3219:1 3258:1 3278:1 
0.01291067829427789 777:1 811:1 832:1 874:1 1386:1 1794:1 1932:1 2064:1 2236:1 2349:1 2616:1 2642:1 2701:1 3179:1 3219:1 
0.25 97:1 951:1 1368:1 1882:1 
0.23450192915355836 59:1 161:1 244:1 412:1 512:1 653:1 1151:1 1675:1 2268:1 2466:1 2690:1 
0.013444521019839558 22:1 47:1 58:1 59:1 161:1 175:1 412:1 467:1 620:1 652:1 653:1 684:1 802:1 988:1 1084:1 1151:2 1372:1 1564:1 1623:1 1794:1 1916:1 1984:1 2208:1 2374:1 2443:1 2466:1 2496:1 2616:1 2811:1 2869:1 
0.0030460108348882515 136:1 178:1 661:1 759:1 811:1 832:1 874:1 1084:2 1215:1 1442:1 1646:2 1894:1 1932:1 1999:1 2017:1 2217:1 2227:5 2236:1 2241:1 2295:1 2342:1 2388:1 2417:1 2480:1 2642:1 2701:1 2838:1 2951:1 3034:1 3098:1 3121:1 3155:1 3219:1 3275:1 3321:1 
0.0033268998319968225 59:1 86:1 124:1 161:1 212:1 226:1 376:1 412:1 477:1 540:1 543:1 653:1 780:1 790:1 811:2 874:1 917:1 1151:1 1185:1 1219:1 1293:1 1348:1 1358:1 1378:1 1392:1 1432:2 1525:1 1611:1 1649:1 1757:1 1833:1 1905:1 1932:1 1979:1 2199:1 2252:1 2298:1 2466:1 2494:1 2533:1 2917:1 2934:1 2936:1 3063:1 3168:1 3228:1 3244:1 3255:1 
0.038230087108159554 248:1 811:1 874:1 962:1 1219:1 1260:1 1342:1 1579:1 1623:1 1671:1 1932:1 1984:1 2110:1 2208:1 2219:1 2297:1 2342:1 2374:1 2933:1 3150:1 3410:1 3441:1 
0.0074742336753068671 17:1 59:1 117:2 134:1 161:1 181:1 253:1 265:1 273:1 275:1 305:1 361:1 412:1 653:1 705:1 730:1 773:1 777:1 1014:2 1151:1 1256:1 1515:1 1739:1 1757:2 1824:1 1963:1 2090:1 2169:1 2199:1 2385:1 2405:1 2466:1 2568:1 2690:1 2694:1 2726:1 3173:1 3406:1 3436:1 
0.028888341226485873 59:1 161:1 412:1 653:1 698:1 811:1 1151:1 1251:1 1341:1 1355:1 1508:1 1631:1 2047:1 2466:1 2485:1 2901:1 2994:1 3134:1 
0.0079685469396954221 107:1 158:1 217:1 232:1 292:1 401:1 409:2 461:1 678:1 687:1 699:1 789:1 811:1 844:1 862:1 913:1 1483:1 1576:1 1676:1 1855:1 1896:1 1918:1 2044:1 2089:1 2172:1 2185:1 2224:1 2276:1 2483:1 2778:1 2901:1 3009:1 3061:1 3121:1 3278:1 
0.25 156:1 421:1 681:1 1117:1 2400:1 2403:1 2483:1 3198:1 
0.0020272872936169962 36:1 59:1 81:1 133:1 158:1 161:1 217:1 379:1 409:1 412:1 475:1 505:1 597:1 615:1 652:1 653:1 685:1 757:1 811:2 905:1 948:1 1036:1 1151:1 1179:1 1318:1 1345:1 1384:1 1432:1 1476:1 1576:1 1611:1 1638:1 1671:1 1813:1 1818:1 1824:1 1827:1 1896:1 1946:1 2041:1 2048:1 2166:1 2167:1 2213:1 2223:1 2236:1 2259:1 2304:1 2342:1 2405:1 2446:1 2466:1 2575:1 2587:1 2601:1 2680:1 2813:1 2891:1 2913:1 2917:1 2992:1 3121:1 3457:1 
0.022602047920878519 435:1 845:1 849:1 956:1 1095:1 1185:1 1219:1 1284:1 1367:1 1429:1 1439:1 1456:1 1519:1 2030:1 2212:1 2276:1 2297:1 2386:1 2423:1 2499:1 2519:1 2789:1 2807:1 2826:1 2917:1 2928:1 2995:1 3150:1 3179:1 3303:1 
0.0088520493594065625 59:1 86:1 161:1 178:1 412:1 430:1 544:1 653:1 661:1 755:1 794:1 847:1 849:1 885:1 1038:1 1151:1 1355:1 1376:1 1432:3 1539:1 1599:1 1827:1 1963:1 2194:1 2238:1 2259:1 2304:1 2350:1 2373:1 2466:1 2492:1 2587:1 2601:1 2740:1 2749:1 2815:1 2935:1 2974:1 3255:1 3352:1 
0.017135471545477982 59:1 161:1 412:1 653:1 816:1 847:1 1151:1 1385:1 1671:1 2047:1 2167:1 2223:1 2466:1 2499:1 2810:1 2901:1 
0.017900707364190444 117:1 162:1 874:1 975:1 1014:1 1671:1 1757:1 1827:1 1932:1 2167:1 2194:1 2223:1 2259:1 2263:1 2304:1 2472:1 2519:1 2587:1 2601:1 2646:1 2974:1 2995:1 3260:1 
0.021322826889021977 59:1 161:1 198:1 409:1 412:1 653:1 721:1 770:1 874:1 1151:1 1668:1 1764:1 1932:1 2172:1 2334:1 2466:1 2616:1 2881:1 
0.0022986483483652307 59:1 97:1 161:1 292:1 412:1 653:1 777:1 850:1 951:1 1151:1 1368:1 1827:1 1882:1 2194:1 2236:1 2259:1 2304:1 2349:1 2466:1 2587:1 2601:1 2855:1 2974:1 
0.001247382319723231 40:1 59:1 83:1 117:1 158:1 161:1 178:1 240:1 244:1 409:1 410:1 412:1 556:1 652:1 653:1 657:1 661:1 680:1 755:1 811:1 846:1 1128:1 1151:1 1153:1 1225:1 1341:1 1355:1 1388:1 1435:1 1508:1 1573:1 1588:1 1599:1 1612:1 1631:1 1771:1 2048:1 2070:1 2213:1 2241:1 2294:1 2388:1 2417:1 2422:1 2423:1 2466:1 2481:2 2492:1 2676:1 2795:1 2809:1 2821:1 2852:1 2881:1 2916:1 2994:1 3033:1 3099:1 3100:1 3175:1 3179:1 3264:1 3303:1 3327:1 3437:1 
0.15383896406694655 59:1 161:1 412:1 653:1 1056:1 1100:1 1151:1 1209:1 1237:1 1329:1 1371:1 1901:1 1968:1 2130:1 2466:1 2529:1 
0.076310171985495931 59:1 161:1 412:1 653:1 698:1 1151:1 1341:1 1508:1 1588:1 1631:1 2294:1 2466:1 2694:1 3100:1 3327:1 
0.25 135:1 1132:1 1979:1 2914:1 
0.00099960777337346966 59:1 139:1 161:1 244:1 409:1 412:1 653:1 698:1 834:1 872:1 982:1 1151:1 1579:1 1813:1 1827:1 1855:1 2044:1 2193:1 2199:1 2217:1 2227:5 2257:1 2304:1 2374:1 2466:1 2485:1 2587:1 2655:1 2780:1 2974:1 3061:1 3219:1 3258:1 3437:1 
0.032576921078343986 36:1 61:1 97:1 193:1 380:1 815:1 823:1 1025:1 1260:1 1663:1 1668:1 1928:1 2083:1 2172:1 2302:1 2342:1 2444:1 2472:1 2549:1 2827:1 3047:1 3219:1 3441:1 
0.25 135:1 1132:1 1979:1 2914:1 
0.0064633448820405953 44:1 59:1 161:1 162:1 168:1 178:1 412:1 597:1 653:1 660:1 661:1 755:1 811:1 832:1 975:1 1151:1 1429:1 1599:1 1623:1 1671:1 1827:1 2167:1 2194:1 2223:1 2240:1 2253:1 2259:1 2263:1 2304:1 2409:1 2466:1 2472:1 2492:1 2538:1 2547:1 2587:1 2601:1 2642:1 2646:1 2701:1 2807:1 2826:1 2974:1 3219:1 3260:1 3326:1 
0.014307328377816595 34:1 59:1 141:1 161:1 412:1 469:1 477:1 543:1 653:1 658:1 811:1 907:1 1151:1 1184:1 1342:1 1392:1 1758:1 1860:1 2071:1 2199:1 2234:1 2466:1 2475:1 2519:1 2819:1 2936:1 2977:1 3154:1 3250:1 3288:1 
0.012938853574588747 19:1 59:1 97:1 161:1 344:1 412:1 653:1 849:1 1151:1 1314:1 1678:1 2246:1 2259:1 2277:1 2302:1 2437:1 2459:1 2466:1 2519:1 2600:1 2781:2 2866:1 2980:1 3090:1 3212:1 
0.25 59:1 161:1 244:1 412:1 653:1 1151:1 1579:1 2374:1 2466:1 
0.0044432264905621376 59:1 127:1 161:1 173:1 175:1 181:1 272:1 292:1 360:1 380:1 412:1 445:1 653:1 687:1 699:1 750:1 759:1 811:2 832:1 862:1 951:1 1049:1 1151:1 1183:1 1215:1 1329:1 1371:1 1570:1 1646:1 1831:1 1901:1 1918:1 2236:1 2260:1 2302:1 2342:1 2466:1 2492:1 2561:1 2599:1 2615:1 2616:1 2642:1 2690:1 2701:1 2810:1 2811:1 2869:1 2901:1 3009:1 3161:1 3212:1 3219:1 3275:1 3326:1 
0.0090087168791092836 59:1 161:1 162:1 169:1 177:1 409:1 412:1 539:1 653:1 777:1 847:1 913:1 975:1 1016:1 1095:1 1135:1 1151:1 1411:1 1855:1 2251:1 2276:1 2466:1 2475:1 2516:1 2543:1 2551:1 2642:1 2810:1 3061:1 3220:1 
0.25 59:1 101:1 117:1 161:1 371:1 409:1 412:1 653:1 804:1 820:1 830:1 1080:1 1151:1 1278:1 1381:1 1611:1 1771:1 1852:1 2005:1 2014:1 2103:1 2261:2 2389:1 2466:1 2496:1 2522:1 2616:2 2621:1 2913:1 
0.25 145:1 811:1 832:1 849:1 998:1 1038:1 1658:1 1740:1 2642:1 2701:1 3118:1 3219:1 
0.072623595548205189 59:1 161:1 412:1 653:1 1095:1 1151:1 1392:1 1635:1 2199:1 2276:1 2280:1 2466:1 2890:1 2980:1 
0.05485705094029681 34:1 59:1 97:1 161:1 244:1 412:1 480:1 653:1 706:1 797:1 849:1 896:1 1038:1 1151:1 1512:1 1746:1 2466:1 3017:1 3047:1 3403:1 
0.0036923481913789398 59:1 161:1 244:2 292:1 304:1 412:1 653:1 850:1 998:1 1151:1 1432:1 1579:2 1676:1 2276:1 2374:2 2466:1 2855:1 3118:1 
0.0050208564216331682 61:1 92:2 113:1 244:1 452:1 560:1 586:1 779:1 788:1 789:1 846:1 1025:1 1049:1 1110:1 1219:1 1298:1 1508:2 1588:1 1719:1 1732:1 1736:1 1894:1 2030:1 2044:1 2047:1 2234:1 2293:1 2294:1 2698:2 2795:1 2865:1 2898:1 2921:1 3075:1 3084:1 3100:1 3265:1 3327:1 3355:1 
0.0038587740866944525 38:1 59:1 161:1 412:1 475:1 484:1 526:1 559:2 653:1 1151:1 1288:1 1289:1 1295:1 2466:1 2523:1 3098:1 
0.067349779447783698 36:1 59:1 161:1 412:1 653:1 811:1 832:1 874:1 1151:1 1392:1 1932:1 2199:1 2466:1 2530:1 2642:1 2701:1 2995:1 3034:1 3219:1 3321:1 
0.027696231480805619 59:1 97:1 161:1 244:1 412:1 430:1 653:1 885:1 951:1 1151:1 1368:1 1440:1 1579:1 1882:1 2374:1 2466:1 2926:1 3352:1 
0.25 115:1 258:1 1179:1 1747:1 2248:1 2472:1 2847:1 2917:1 3326:1 
0.0069003278748086148 59:1 161:1 244:1 287:1 297:1 412:1 653:1 757:1 759:1 767:1 871:1 890:1 1151:1 1315:1 1325:1 1452:1 1579:1 1627:1 1646:1 1813:1 1818:1 1933:1 2374:1 2466:1 2896:1 3212:1 3376:1 
0.016550480293285461 38:1 59:1 161:1 412:1 421:1 475:1 526:1 559:1 653:1 937:1 945:1 1151:1 1283:1 1288:1 2133:1 2466:1 
0.0054805263762827657 59:1 92:1 105:1 161:1 178:1 198:1 244:1 409:1 412:1 430:1 653:1 656:1 661:1 755:1 885:1 1088:1 1151:1 1432:1 1452:1 1508:1 1579:1 1599:1 1623:1 1639:1 1651:1 1736:1 1827:1 2124:1 2194:1 2259:1 2304:1 2374:1 2403:1 2466:1 2480:1 2481:1 2492:1 2519:1 2587:1 2601:1 2881:1 2974:1 2995:1 3212:1 3262:1 3352:1 
0.0026073748395839757 59:1 92:1 161:1 244:1 246:1 412:1 464:1 482:1 617:1 653:1 784:1 849:1 956:1 970:1 1151:1 1185:2 1371:2 1378:2 1456:1 1492:1 1508:1 1579:1 1588:1 1623:1 1746:1 1794:1 1813:1 1818:1 1901:1 1912:1 1914:1 1978:1 1979:2 1984:1 2109:1 2203:1 2208:1 2294:1 2317:1 2374:1 2466:1 2703:1 2865:1 2917:2 3100:1 3299:1 3393:1 
0.0030165715484495089 59:1 92:1 161:1 163:1 169:2 379:1 412:1 653:1 750:1 777:1 811:1 872:1 913:2 1036:1 1121:1 1151:1 1516:1 1615:1 1670:1 1861:1 1946:1 2205:1 2466:1 2480:1 2551:2 2810:1 2865:1 3176:1 3216:1 
0.0041465524244821044 18:1 59:1 92:1 97:1 156:1 161:1 207:2 210:1 244:2 297:1 324:1 412:1 512:2 531:1 653:1 656:1 849:1 1025:1 1038:1 1134:1 1151:1 1247:1 1325:1 1385:1 1508:1 1563:1 1736:1 2011:1 2044:1 2161:1 2199:3 2244:1 2334:2 2361:1 2384:1 2397:1 2466:1 2579:2 2811:1 2871:1 2996:2 3016:1 3082:1 
0.080244900876065631 59:1 161:1 412:1 464:1 603:1 653:1 1151:1 2046:1 2295:1 2311:1 2466:1 2889:1 3134:1 3314:1 
0.25 139:1 1452:1 1639:1 2044:1 3212:1 3258:1 
0.0066863398483440533 59:1 161:1 412:1 475:1 540:1 653:1 685:1 790:1 888:1 1151:1 1293:1 1827:1 2194:1 2259:1 2304:1 2344:1 2466:1 2587:1 2601:1 2974:1 3228:1 3372:1 
0.011662162053581678 117:1 195:1 217:1 409:1 432:1 662:1 1014:1 1092:1 1099:1 1576:1 1704:1 1757:1 1827:1 1896:1 2110:1 2194:1 2219:1 2259:1 2304:1 2481:1 2587:1 2601:1 2974:1 3062:1 3121:1 
0.060646218377954274 59:1 105:1 161:1 412:1 653:1 656:1 784:1 1151:1 1355:1 1492:1 1623:1 1651:1 1676:1 1978:1 2276:1 2317:1 2466:1 2481:1 
0.067398232302602529 175:1 244:1 706:1 797:1 1056:1 1237:1 1329:1 1579:1 1602:1 1968:1 2206:1 2374:1 2616:2 2754:1 2811:1 2869:1 2975:1 
0.0032277086041587202 59:1 117:1 161:1 200:1 217:1 409:1 412:1 459:1 653:1 811:2 832:1 872:1 997:1 1014:1 1092:1 1151:1 1358:1 1367:2 1486:2 1575:1 1576:1 1623:1 1651:1 1653:1 1662:1 1757:3 1827:1 1896:1 1931:1 2110:1 2161:2 2179:1 2188:1 2194:1 2219:1 2259:1 2304:1 2466:1 2587:1 2601:1 2642:1 2701:1 2890:1 2934:1 2974:1 3104:1 3121:1 3168:1 3219:2 
0.019028940630772002 36:1 59:1 161:1 175:1 412:1 652:1 653:1 1151:2 1260:1 2342:1 2466:1 2616:1 2811:1 2869:1 3441:1 
0.004021689641918358 59:1 86:1 134:1 139:1 145:1 161:1 178:1 217:1 244:1 248:1 273:1 377:1 409:1 412:1 653:1 780:1 811:1 813:1 832:1 983:1 1151:1 1211:1 1311:1 1385:1 1432:1 1576:1 1579:2 1588:1 1658:1 1739:1 1740:1 1896:1 1901:1 1963:1 2044:2 2161:1 2174:1 2374:2 2384:1 2460:1 2466:1 2524:1 2642:1 2701:1 3121:1 3219:1 3255:1 3410:1 
0.070484597754761916 59:1 69:1 161:1 412:1 653:1 1095:1 1151:1 1214:1 2084:1 2167:1 2223:1 2276:1 2466:1 3322:1 
0.014795119181675101 36:1 460:1 461:1 531:1 603:1 648:1 703:1 740:1 750:1 789:1 929:1 1056:1 1237:1 1293:1 1329:1 1408:1 1538:1 1663:1 1792:1 1985:1 2019:1 2044:1 2047:1 2083:1 2172:1 2213:1 2224:1 2304:1 2311:1 2472:1 2519:1 2898:1 2995:1 3274:1 3317:1 
0.0088252088670051909 2:3 6:1 28:1 59:1 114:1 131:1 161:1 266:1 412:1 432:1 653:1 657:1 750:1 872:1 1084:1 1151:1 1348:1 1615:1 1646:1 1901:1 2466:1 2481:1 2815:1 2821:1 2933:1 2994:1 3216:1 
0.015219738570077771 168:1 224:1 244:1 660:1 777:1 787:1 789:1 998:1 1049:1 1095:1 1139:1 1358:1 1579:1 1623:1 1757:1 1915:1 2017:1 2044:1 2287:1 2293:1 2374:1 2547:1 2898:1 2934:1 3009:1 3084:1 3118:1 3218:1 
0.0017339659728405469 59:1 97:1 104:1 161:1 162:1 195:1 291:1 412:1 653:1 656:1 660:1 759:1 834:2 847:1 872:2 1084:1 1151:2 1406:1 1452:1 1641:1 1646:1 2199:1 2276:1 2368:1 2438:1 2453:1 2466:1 2472:1 2655:1 2656:1 2810:1 2813:1 2866:1 2891:1 2913:1 3137:1 3138:1 3212:1 3219:2 3275:1 3437:1 3458:1 3461:1 
0.094408509430674956 59:1 161:1 412:1 595:1 653:1 893:1 1121:1 1151:1 1520:1 1980:1 2207:1 2466:1 
0.0026244505086901104 1:1 59:1 161:1 200:1 244:2 412:1 653:1 702:1 746:1 780:1 1151:1 1179:1 1409:1 1445:1 1516:1 1575:1 1579:1 1638:1 1901:1 2374:1 2466:1 2480:1 2811:1 2874:1 2890:1 2917:1 2939:1 2947:1 3012:1 3273:1 
0.0040646628817858571 25:1 28:2 105:1 139:1 158:1 167:1 266:1 306:1 393:1 432:2 543:1 656:1 660:1 811:1 849:1 1026:1 1216:1 1355:1 1365:1 1432:1 1519:1 1564:2 1623:1 1651:1 1741:1 1851:1 1905:1 2044:1 2202:1 2261:1 2374:1 2423:1 2481:1 2539:1 2616:1 2723:1 2833:1 2846:2 3094:1 3179:1 3258:1 3298:2 3324:1 
0.065182538043207588 59:1 114:1 161:1 209:1 412:1 653:1 657:1 774:1 1151:1 1839:1 2409:1 2466:1 2481:1 2821:1 2897:1 2994:1 3009:1 
0.046396604540537095 86:1 162:1 224:1 244:1 660:1 789:1 849:1 1139:1 1151:1 1358:1 1432:1 1579:1 1757:1 2044:1 2374:1 2472:1 2934:1 3218:1 3255:1 3412:1 
0.0010592215460176403 86:1 162:1 224:1 244:1 660:1 789:1 849:1 1139:1 1151:1 1358:1 1432:1 1579:1 1757:1 2044:1 2374:1 2472:1 2616:1 2934:1 3218:1 3255:1 3412:1 
0.019377488179128894 59:1 161:1 244:1 412:1 653:1 834:1 872:1 956:1 1151:1 1456:1 1579:1 2374:1 2466:1 2656:1 2913:1 3219:1 3458:1 
0.0061323295860241725 59:1 161:1 209:1 234:1 412:1 467:1 590:1 595:1 634:1 653:1 789:1 793:1 811:1 849:1 951:1 1034:1 1151:1 1211:1 1215:1 1371:1 1588:1 1611:1 1813:1 1818:1 1901:1 1946:1 2044:2 2124:1 2174:1 2199:1 2213:1 2236:1 2253:1 2342:1 2456:1 2466:1 2538:1 2898:1 3009:1 3125:1 3310:1 3326:1 3412:1 
